tree
version=v4
num_class=1
num_tree_per_iteration=1
label_index=0
max_feature_idx=2380
objective=binary sigmoid:1
feature_names=Column_0 Column_1 Column_2 Column_3 Column_4 Column_5 Column_6 Column_7 Column_8 Column_9 Column_10 Column_11 Column_12 Column_13 Column_14 Column_15 Column_16 Column_17 Column_18 Column_19 Column_20 Column_21 Column_22 Column_23 Column_24 Column_25 Column_26 Column_27 Column_28 Column_29 Column_30 Column_31 Column_32 Column_33 Column_34 Column_35 Column_36 Column_37 Column_38 Column_39 Column_40 Column_41 Column_42 Column_43 Column_44 Column_45 Column_46 Column_47 Column_48 Column_49 Column_50 Column_51 Column_52 Column_53 Column_54 Column_55 Column_56 Column_57 Column_58 Column_59 Column_60 Column_61 Column_62 Column_63 Column_64 Column_65 Column_66 Column_67 Column_68 Column_69 Column_70 Column_71 Column_72 Column_73 Column_74 Column_75 Column_76 Column_77 Column_78 Column_79 Column_80 Column_81 Column_82 Column_83 Column_84 Column_85 Column_86 Column_87 Column_88 Column_89 Column_90 Column_91 Column_92 Column_93 Column_94 Column_95 Column_96 Column_97 Column_98 Column_99 Column_100 Column_101 Column_102 Column_103 Column_104 Column_105 Column_106 Column_107 Column_108 Column_109 Column_110 Column_111 Column_112 Column_113 Column_114 Column_115 Column_116 Column_117 Column_118 Column_119 Column_120 Column_121 Column_122 Column_123 Column_124 Column_125 Column_126 Column_127 Column_128 Column_129 Column_130 Column_131 Column_132 Column_133 Column_134 Column_135 Column_136 Column_137 Column_138 Column_139 Column_140 Column_141 Column_142 Column_143 Column_144 Column_145 Column_146 Column_147 Column_148 Column_149 Column_150 Column_151 Column_152 Column_153 Column_154 Column_155 Column_156 Column_157 Column_158 Column_159 Column_160 Column_161 Column_162 Column_163 Column_164 Column_165 Column_166 Column_167 Column_168 Column_169 Column_170 Column_171 Column_172 Column_173 Column_174 Column_175 Column_176 Column_177 Column_178 Column_179 Column_180 Column_181 Column_182 Column_183 Column_184 Column_185 Column_186 Column_187 Column_188 Column_189 Column_190 Column_191 Column_192 Column_193 Column_194 Column_195 Column_196 Column_197 Column_198 Column_199 Column_200 Column_201 Column_202 Column_203 Column_204 Column_205 Column_206 Column_207 Column_208 Column_209 Column_210 Column_211 Column_212 Column_213 Column_214 Column_215 Column_216 Column_217 Column_218 Column_219 Column_220 Column_221 Column_222 Column_223 Column_224 Column_225 Column_226 Column_227 Column_228 Column_229 Column_230 Column_231 Column_232 Column_233 Column_234 Column_235 Column_236 Column_237 Column_238 Column_239 Column_240 Column_241 Column_242 Column_243 Column_244 Column_245 Column_246 Column_247 Column_248 Column_249 Column_250 Column_251 Column_252 Column_253 Column_254 Column_255 Column_256 Column_257 Column_258 Column_259 Column_260 Column_261 Column_262 Column_263 Column_264 Column_265 Column_266 Column_267 Column_268 Column_269 Column_270 Column_271 Column_272 Column_273 Column_274 Column_275 Column_276 Column_277 Column_278 Column_279 Column_280 Column_281 Column_282 Column_283 Column_284 Column_285 Column_286 Column_287 Column_288 Column_289 Column_290 Column_291 Column_292 Column_293 Column_294 Column_295 Column_296 Column_297 Column_298 Column_299 Column_300 Column_301 Column_302 Column_303 Column_304 Column_305 Column_306 Column_307 Column_308 Column_309 Column_310 Column_311 Column_312 Column_313 Column_314 Column_315 Column_316 Column_317 Column_318 Column_319 Column_320 Column_321 Column_322 Column_323 Column_324 Column_325 Column_326 Column_327 Column_328 Column_329 Column_330 Column_331 Column_332 Column_333 Column_334 Column_335 Column_336 Column_337 Column_338 Column_339 Column_340 Column_341 Column_342 Column_343 Column_344 Column_345 Column_346 Column_347 Column_348 Column_349 Column_350 Column_351 Column_352 Column_353 Column_354 Column_355 Column_356 Column_357 Column_358 Column_359 Column_360 Column_361 Column_362 Column_363 Column_364 Column_365 Column_366 Column_367 Column_368 Column_369 Column_370 Column_371 Column_372 Column_373 Column_374 Column_375 Column_376 Column_377 Column_378 Column_379 Column_380 Column_381 Column_382 Column_383 Column_384 Column_385 Column_386 Column_387 Column_388 Column_389 Column_390 Column_391 Column_392 Column_393 Column_394 Column_395 Column_396 Column_397 Column_398 Column_399 Column_400 Column_401 Column_402 Column_403 Column_404 Column_405 Column_406 Column_407 Column_408 Column_409 Column_410 Column_411 Column_412 Column_413 Column_414 Column_415 Column_416 Column_417 Column_418 Column_419 Column_420 Column_421 Column_422 Column_423 Column_424 Column_425 Column_426 Column_427 Column_428 Column_429 Column_430 Column_431 Column_432 Column_433 Column_434 Column_435 Column_436 Column_437 Column_438 Column_439 Column_440 Column_441 Column_442 Column_443 Column_444 Column_445 Column_446 Column_447 Column_448 Column_449 Column_450 Column_451 Column_452 Column_453 Column_454 Column_455 Column_456 Column_457 Column_458 Column_459 Column_460 Column_461 Column_462 Column_463 Column_464 Column_465 Column_466 Column_467 Column_468 Column_469 Column_470 Column_471 Column_472 Column_473 Column_474 Column_475 Column_476 Column_477 Column_478 Column_479 Column_480 Column_481 Column_482 Column_483 Column_484 Column_485 Column_486 Column_487 Column_488 Column_489 Column_490 Column_491 Column_492 Column_493 Column_494 Column_495 Column_496 Column_497 Column_498 Column_499 Column_500 Column_501 Column_502 Column_503 Column_504 Column_505 Column_506 Column_507 Column_508 Column_509 Column_510 Column_511 Column_512 Column_513 Column_514 Column_515 Column_516 Column_517 Column_518 Column_519 Column_520 Column_521 Column_522 Column_523 Column_524 Column_525 Column_526 Column_527 Column_528 Column_529 Column_530 Column_531 Column_532 Column_533 Column_534 Column_535 Column_536 Column_537 Column_538 Column_539 Column_540 Column_541 Column_542 Column_543 Column_544 Column_545 Column_546 Column_547 Column_548 Column_549 Column_550 Column_551 Column_552 Column_553 Column_554 Column_555 Column_556 Column_557 Column_558 Column_559 Column_560 Column_561 Column_562 Column_563 Column_564 Column_565 Column_566 Column_567 Column_568 Column_569 Column_570 Column_571 Column_572 Column_573 Column_574 Column_575 Column_576 Column_577 Column_578 Column_579 Column_580 Column_581 Column_582 Column_583 Column_584 Column_585 Column_586 Column_587 Column_588 Column_589 Column_590 Column_591 Column_592 Column_593 Column_594 Column_595 Column_596 Column_597 Column_598 Column_599 Column_600 Column_601 Column_602 Column_603 Column_604 Column_605 Column_606 Column_607 Column_608 Column_609 Column_610 Column_611 Column_612 Column_613 Column_614 Column_615 Column_616 Column_617 Column_618 Column_619 Column_620 Column_621 Column_622 Column_623 Column_624 Column_625 Column_626 Column_627 Column_628 Column_629 Column_630 Column_631 Column_632 Column_633 Column_634 Column_635 Column_636 Column_637 Column_638 Column_639 Column_640 Column_641 Column_642 Column_643 Column_644 Column_645 Column_646 Column_647 Column_648 Column_649 Column_650 Column_651 Column_652 Column_653 Column_654 Column_655 Column_656 Column_657 Column_658 Column_659 Column_660 Column_661 Column_662 Column_663 Column_664 Column_665 Column_666 Column_667 Column_668 Column_669 Column_670 Column_671 Column_672 Column_673 Column_674 Column_675 Column_676 Column_677 Column_678 Column_679 Column_680 Column_681 Column_682 Column_683 Column_684 Column_685 Column_686 Column_687 Column_688 Column_689 Column_690 Column_691 Column_692 Column_693 Column_694 Column_695 Column_696 Column_697 Column_698 Column_699 Column_700 Column_701 Column_702 Column_703 Column_704 Column_705 Column_706 Column_707 Column_708 Column_709 Column_710 Column_711 Column_712 Column_713 Column_714 Column_715 Column_716 Column_717 Column_718 Column_719 Column_720 Column_721 Column_722 Column_723 Column_724 Column_725 Column_726 Column_727 Column_728 Column_729 Column_730 Column_731 Column_732 Column_733 Column_734 Column_735 Column_736 Column_737 Column_738 Column_739 Column_740 Column_741 Column_742 Column_743 Column_744 Column_745 Column_746 Column_747 Column_748 Column_749 Column_750 Column_751 Column_752 Column_753 Column_754 Column_755 Column_756 Column_757 Column_758 Column_759 Column_760 Column_761 Column_762 Column_763 Column_764 Column_765 Column_766 Column_767 Column_768 Column_769 Column_770 Column_771 Column_772 Column_773 Column_774 Column_775 Column_776 Column_777 Column_778 Column_779 Column_780 Column_781 Column_782 Column_783 Column_784 Column_785 Column_786 Column_787 Column_788 Column_789 Column_790 Column_791 Column_792 Column_793 Column_794 Column_795 Column_796 Column_797 Column_798 Column_799 Column_800 Column_801 Column_802 Column_803 Column_804 Column_805 Column_806 Column_807 Column_808 Column_809 Column_810 Column_811 Column_812 Column_813 Column_814 Column_815 Column_816 Column_817 Column_818 Column_819 Column_820 Column_821 Column_822 Column_823 Column_824 Column_825 Column_826 Column_827 Column_828 Column_829 Column_830 Column_831 Column_832 Column_833 Column_834 Column_835 Column_836 Column_837 Column_838 Column_839 Column_840 Column_841 Column_842 Column_843 Column_844 Column_845 Column_846 Column_847 Column_848 Column_849 Column_850 Column_851 Column_852 Column_853 Column_854 Column_855 Column_856 Column_857 Column_858 Column_859 Column_860 Column_861 Column_862 Column_863 Column_864 Column_865 Column_866 Column_867 Column_868 Column_869 Column_870 Column_871 Column_872 Column_873 Column_874 Column_875 Column_876 Column_877 Column_878 Column_879 Column_880 Column_881 Column_882 Column_883 Column_884 Column_885 Column_886 Column_887 Column_888 Column_889 Column_890 Column_891 Column_892 Column_893 Column_894 Column_895 Column_896 Column_897 Column_898 Column_899 Column_900 Column_901 Column_902 Column_903 Column_904 Column_905 Column_906 Column_907 Column_908 Column_909 Column_910 Column_911 Column_912 Column_913 Column_914 Column_915 Column_916 Column_917 Column_918 Column_919 Column_920 Column_921 Column_922 Column_923 Column_924 Column_925 Column_926 Column_927 Column_928 Column_929 Column_930 Column_931 Column_932 Column_933 Column_934 Column_935 Column_936 Column_937 Column_938 Column_939 Column_940 Column_941 Column_942 Column_943 Column_944 Column_945 Column_946 Column_947 Column_948 Column_949 Column_950 Column_951 Column_952 Column_953 Column_954 Column_955 Column_956 Column_957 Column_958 Column_959 Column_960 Column_961 Column_962 Column_963 Column_964 Column_965 Column_966 Column_967 Column_968 Column_969 Column_970 Column_971 Column_972 Column_973 Column_974 Column_975 Column_976 Column_977 Column_978 Column_979 Column_980 Column_981 Column_982 Column_983 Column_984 Column_985 Column_986 Column_987 Column_988 Column_989 Column_990 Column_991 Column_992 Column_993 Column_994 Column_995 Column_996 Column_997 Column_998 Column_999 Column_1000 Column_1001 Column_1002 Column_1003 Column_1004 Column_1005 Column_1006 Column_1007 Column_1008 Column_1009 Column_1010 Column_1011 Column_1012 Column_1013 Column_1014 Column_1015 Column_1016 Column_1017 Column_1018 Column_1019 Column_1020 Column_1021 Column_1022 Column_1023 Column_1024 Column_1025 Column_1026 Column_1027 Column_1028 Column_1029 Column_1030 Column_1031 Column_1032 Column_1033 Column_1034 Column_1035 Column_1036 Column_1037 Column_1038 Column_1039 Column_1040 Column_1041 Column_1042 Column_1043 Column_1044 Column_1045 Column_1046 Column_1047 Column_1048 Column_1049 Column_1050 Column_1051 Column_1052 Column_1053 Column_1054 Column_1055 Column_1056 Column_1057 Column_1058 Column_1059 Column_1060 Column_1061 Column_1062 Column_1063 Column_1064 Column_1065 Column_1066 Column_1067 Column_1068 Column_1069 Column_1070 Column_1071 Column_1072 Column_1073 Column_1074 Column_1075 Column_1076 Column_1077 Column_1078 Column_1079 Column_1080 Column_1081 Column_1082 Column_1083 Column_1084 Column_1085 Column_1086 Column_1087 Column_1088 Column_1089 Column_1090 Column_1091 Column_1092 Column_1093 Column_1094 Column_1095 Column_1096 Column_1097 Column_1098 Column_1099 Column_1100 Column_1101 Column_1102 Column_1103 Column_1104 Column_1105 Column_1106 Column_1107 Column_1108 Column_1109 Column_1110 Column_1111 Column_1112 Column_1113 Column_1114 Column_1115 Column_1116 Column_1117 Column_1118 Column_1119 Column_1120 Column_1121 Column_1122 Column_1123 Column_1124 Column_1125 Column_1126 Column_1127 Column_1128 Column_1129 Column_1130 Column_1131 Column_1132 Column_1133 Column_1134 Column_1135 Column_1136 Column_1137 Column_1138 Column_1139 Column_1140 Column_1141 Column_1142 Column_1143 Column_1144 Column_1145 Column_1146 Column_1147 Column_1148 Column_1149 Column_1150 Column_1151 Column_1152 Column_1153 Column_1154 Column_1155 Column_1156 Column_1157 Column_1158 Column_1159 Column_1160 Column_1161 Column_1162 Column_1163 Column_1164 Column_1165 Column_1166 Column_1167 Column_1168 Column_1169 Column_1170 Column_1171 Column_1172 Column_1173 Column_1174 Column_1175 Column_1176 Column_1177 Column_1178 Column_1179 Column_1180 Column_1181 Column_1182 Column_1183 Column_1184 Column_1185 Column_1186 Column_1187 Column_1188 Column_1189 Column_1190 Column_1191 Column_1192 Column_1193 Column_1194 Column_1195 Column_1196 Column_1197 Column_1198 Column_1199 Column_1200 Column_1201 Column_1202 Column_1203 Column_1204 Column_1205 Column_1206 Column_1207 Column_1208 Column_1209 Column_1210 Column_1211 Column_1212 Column_1213 Column_1214 Column_1215 Column_1216 Column_1217 Column_1218 Column_1219 Column_1220 Column_1221 Column_1222 Column_1223 Column_1224 Column_1225 Column_1226 Column_1227 Column_1228 Column_1229 Column_1230 Column_1231 Column_1232 Column_1233 Column_1234 Column_1235 Column_1236 Column_1237 Column_1238 Column_1239 Column_1240 Column_1241 Column_1242 Column_1243 Column_1244 Column_1245 Column_1246 Column_1247 Column_1248 Column_1249 Column_1250 Column_1251 Column_1252 Column_1253 Column_1254 Column_1255 Column_1256 Column_1257 Column_1258 Column_1259 Column_1260 Column_1261 Column_1262 Column_1263 Column_1264 Column_1265 Column_1266 Column_1267 Column_1268 Column_1269 Column_1270 Column_1271 Column_1272 Column_1273 Column_1274 Column_1275 Column_1276 Column_1277 Column_1278 Column_1279 Column_1280 Column_1281 Column_1282 Column_1283 Column_1284 Column_1285 Column_1286 Column_1287 Column_1288 Column_1289 Column_1290 Column_1291 Column_1292 Column_1293 Column_1294 Column_1295 Column_1296 Column_1297 Column_1298 Column_1299 Column_1300 Column_1301 Column_1302 Column_1303 Column_1304 Column_1305 Column_1306 Column_1307 Column_1308 Column_1309 Column_1310 Column_1311 Column_1312 Column_1313 Column_1314 Column_1315 Column_1316 Column_1317 Column_1318 Column_1319 Column_1320 Column_1321 Column_1322 Column_1323 Column_1324 Column_1325 Column_1326 Column_1327 Column_1328 Column_1329 Column_1330 Column_1331 Column_1332 Column_1333 Column_1334 Column_1335 Column_1336 Column_1337 Column_1338 Column_1339 Column_1340 Column_1341 Column_1342 Column_1343 Column_1344 Column_1345 Column_1346 Column_1347 Column_1348 Column_1349 Column_1350 Column_1351 Column_1352 Column_1353 Column_1354 Column_1355 Column_1356 Column_1357 Column_1358 Column_1359 Column_1360 Column_1361 Column_1362 Column_1363 Column_1364 Column_1365 Column_1366 Column_1367 Column_1368 Column_1369 Column_1370 Column_1371 Column_1372 Column_1373 Column_1374 Column_1375 Column_1376 Column_1377 Column_1378 Column_1379 Column_1380 Column_1381 Column_1382 Column_1383 Column_1384 Column_1385 Column_1386 Column_1387 Column_1388 Column_1389 Column_1390 Column_1391 Column_1392 Column_1393 Column_1394 Column_1395 Column_1396 Column_1397 Column_1398 Column_1399 Column_1400 Column_1401 Column_1402 Column_1403 Column_1404 Column_1405 Column_1406 Column_1407 Column_1408 Column_1409 Column_1410 Column_1411 Column_1412 Column_1413 Column_1414 Column_1415 Column_1416 Column_1417 Column_1418 Column_1419 Column_1420 Column_1421 Column_1422 Column_1423 Column_1424 Column_1425 Column_1426 Column_1427 Column_1428 Column_1429 Column_1430 Column_1431 Column_1432 Column_1433 Column_1434 Column_1435 Column_1436 Column_1437 Column_1438 Column_1439 Column_1440 Column_1441 Column_1442 Column_1443 Column_1444 Column_1445 Column_1446 Column_1447 Column_1448 Column_1449 Column_1450 Column_1451 Column_1452 Column_1453 Column_1454 Column_1455 Column_1456 Column_1457 Column_1458 Column_1459 Column_1460 Column_1461 Column_1462 Column_1463 Column_1464 Column_1465 Column_1466 Column_1467 Column_1468 Column_1469 Column_1470 Column_1471 Column_1472 Column_1473 Column_1474 Column_1475 Column_1476 Column_1477 Column_1478 Column_1479 Column_1480 Column_1481 Column_1482 Column_1483 Column_1484 Column_1485 Column_1486 Column_1487 Column_1488 Column_1489 Column_1490 Column_1491 Column_1492 Column_1493 Column_1494 Column_1495 Column_1496 Column_1497 Column_1498 Column_1499 Column_1500 Column_1501 Column_1502 Column_1503 Column_1504 Column_1505 Column_1506 Column_1507 Column_1508 Column_1509 Column_1510 Column_1511 Column_1512 Column_1513 Column_1514 Column_1515 Column_1516 Column_1517 Column_1518 Column_1519 Column_1520 Column_1521 Column_1522 Column_1523 Column_1524 Column_1525 Column_1526 Column_1527 Column_1528 Column_1529 Column_1530 Column_1531 Column_1532 Column_1533 Column_1534 Column_1535 Column_1536 Column_1537 Column_1538 Column_1539 Column_1540 Column_1541 Column_1542 Column_1543 Column_1544 Column_1545 Column_1546 Column_1547 Column_1548 Column_1549 Column_1550 Column_1551 Column_1552 Column_1553 Column_1554 Column_1555 Column_1556 Column_1557 Column_1558 Column_1559 Column_1560 Column_1561 Column_1562 Column_1563 Column_1564 Column_1565 Column_1566 Column_1567 Column_1568 Column_1569 Column_1570 Column_1571 Column_1572 Column_1573 Column_1574 Column_1575 Column_1576 Column_1577 Column_1578 Column_1579 Column_1580 Column_1581 Column_1582 Column_1583 Column_1584 Column_1585 Column_1586 Column_1587 Column_1588 Column_1589 Column_1590 Column_1591 Column_1592 Column_1593 Column_1594 Column_1595 Column_1596 Column_1597 Column_1598 Column_1599 Column_1600 Column_1601 Column_1602 Column_1603 Column_1604 Column_1605 Column_1606 Column_1607 Column_1608 Column_1609 Column_1610 Column_1611 Column_1612 Column_1613 Column_1614 Column_1615 Column_1616 Column_1617 Column_1618 Column_1619 Column_1620 Column_1621 Column_1622 Column_1623 Column_1624 Column_1625 Column_1626 Column_1627 Column_1628 Column_1629 Column_1630 Column_1631 Column_1632 Column_1633 Column_1634 Column_1635 Column_1636 Column_1637 Column_1638 Column_1639 Column_1640 Column_1641 Column_1642 Column_1643 Column_1644 Column_1645 Column_1646 Column_1647 Column_1648 Column_1649 Column_1650 Column_1651 Column_1652 Column_1653 Column_1654 Column_1655 Column_1656 Column_1657 Column_1658 Column_1659 Column_1660 Column_1661 Column_1662 Column_1663 Column_1664 Column_1665 Column_1666 Column_1667 Column_1668 Column_1669 Column_1670 Column_1671 Column_1672 Column_1673 Column_1674 Column_1675 Column_1676 Column_1677 Column_1678 Column_1679 Column_1680 Column_1681 Column_1682 Column_1683 Column_1684 Column_1685 Column_1686 Column_1687 Column_1688 Column_1689 Column_1690 Column_1691 Column_1692 Column_1693 Column_1694 Column_1695 Column_1696 Column_1697 Column_1698 Column_1699 Column_1700 Column_1701 Column_1702 Column_1703 Column_1704 Column_1705 Column_1706 Column_1707 Column_1708 Column_1709 Column_1710 Column_1711 Column_1712 Column_1713 Column_1714 Column_1715 Column_1716 Column_1717 Column_1718 Column_1719 Column_1720 Column_1721 Column_1722 Column_1723 Column_1724 Column_1725 Column_1726 Column_1727 Column_1728 Column_1729 Column_1730 Column_1731 Column_1732 Column_1733 Column_1734 Column_1735 Column_1736 Column_1737 Column_1738 Column_1739 Column_1740 Column_1741 Column_1742 Column_1743 Column_1744 Column_1745 Column_1746 Column_1747 Column_1748 Column_1749 Column_1750 Column_1751 Column_1752 Column_1753 Column_1754 Column_1755 Column_1756 Column_1757 Column_1758 Column_1759 Column_1760 Column_1761 Column_1762 Column_1763 Column_1764 Column_1765 Column_1766 Column_1767 Column_1768 Column_1769 Column_1770 Column_1771 Column_1772 Column_1773 Column_1774 Column_1775 Column_1776 Column_1777 Column_1778 Column_1779 Column_1780 Column_1781 Column_1782 Column_1783 Column_1784 Column_1785 Column_1786 Column_1787 Column_1788 Column_1789 Column_1790 Column_1791 Column_1792 Column_1793 Column_1794 Column_1795 Column_1796 Column_1797 Column_1798 Column_1799 Column_1800 Column_1801 Column_1802 Column_1803 Column_1804 Column_1805 Column_1806 Column_1807 Column_1808 Column_1809 Column_1810 Column_1811 Column_1812 Column_1813 Column_1814 Column_1815 Column_1816 Column_1817 Column_1818 Column_1819 Column_1820 Column_1821 Column_1822 Column_1823 Column_1824 Column_1825 Column_1826 Column_1827 Column_1828 Column_1829 Column_1830 Column_1831 Column_1832 Column_1833 Column_1834 Column_1835 Column_1836 Column_1837 Column_1838 Column_1839 Column_1840 Column_1841 Column_1842 Column_1843 Column_1844 Column_1845 Column_1846 Column_1847 Column_1848 Column_1849 Column_1850 Column_1851 Column_1852 Column_1853 Column_1854 Column_1855 Column_1856 Column_1857 Column_1858 Column_1859 Column_1860 Column_1861 Column_1862 Column_1863 Column_1864 Column_1865 Column_1866 Column_1867 Column_1868 Column_1869 Column_1870 Column_1871 Column_1872 Column_1873 Column_1874 Column_1875 Column_1876 Column_1877 Column_1878 Column_1879 Column_1880 Column_1881 Column_1882 Column_1883 Column_1884 Column_1885 Column_1886 Column_1887 Column_1888 Column_1889 Column_1890 Column_1891 Column_1892 Column_1893 Column_1894 Column_1895 Column_1896 Column_1897 Column_1898 Column_1899 Column_1900 Column_1901 Column_1902 Column_1903 Column_1904 Column_1905 Column_1906 Column_1907 Column_1908 Column_1909 Column_1910 Column_1911 Column_1912 Column_1913 Column_1914 Column_1915 Column_1916 Column_1917 Column_1918 Column_1919 Column_1920 Column_1921 Column_1922 Column_1923 Column_1924 Column_1925 Column_1926 Column_1927 Column_1928 Column_1929 Column_1930 Column_1931 Column_1932 Column_1933 Column_1934 Column_1935 Column_1936 Column_1937 Column_1938 Column_1939 Column_1940 Column_1941 Column_1942 Column_1943 Column_1944 Column_1945 Column_1946 Column_1947 Column_1948 Column_1949 Column_1950 Column_1951 Column_1952 Column_1953 Column_1954 Column_1955 Column_1956 Column_1957 Column_1958 Column_1959 Column_1960 Column_1961 Column_1962 Column_1963 Column_1964 Column_1965 Column_1966 Column_1967 Column_1968 Column_1969 Column_1970 Column_1971 Column_1972 Column_1973 Column_1974 Column_1975 Column_1976 Column_1977 Column_1978 Column_1979 Column_1980 Column_1981 Column_1982 Column_1983 Column_1984 Column_1985 Column_1986 Column_1987 Column_1988 Column_1989 Column_1990 Column_1991 Column_1992 Column_1993 Column_1994 Column_1995 Column_1996 Column_1997 Column_1998 Column_1999 Column_2000 Column_2001 Column_2002 Column_2003 Column_2004 Column_2005 Column_2006 Column_2007 Column_2008 Column_2009 Column_2010 Column_2011 Column_2012 Column_2013 Column_2014 Column_2015 Column_2016 Column_2017 Column_2018 Column_2019 Column_2020 Column_2021 Column_2022 Column_2023 Column_2024 Column_2025 Column_2026 Column_2027 Column_2028 Column_2029 Column_2030 Column_2031 Column_2032 Column_2033 Column_2034 Column_2035 Column_2036 Column_2037 Column_2038 Column_2039 Column_2040 Column_2041 Column_2042 Column_2043 Column_2044 Column_2045 Column_2046 Column_2047 Column_2048 Column_2049 Column_2050 Column_2051 Column_2052 Column_2053 Column_2054 Column_2055 Column_2056 Column_2057 Column_2058 Column_2059 Column_2060 Column_2061 Column_2062 Column_2063 Column_2064 Column_2065 Column_2066 Column_2067 Column_2068 Column_2069 Column_2070 Column_2071 Column_2072 Column_2073 Column_2074 Column_2075 Column_2076 Column_2077 Column_2078 Column_2079 Column_2080 Column_2081 Column_2082 Column_2083 Column_2084 Column_2085 Column_2086 Column_2087 Column_2088 Column_2089 Column_2090 Column_2091 Column_2092 Column_2093 Column_2094 Column_2095 Column_2096 Column_2097 Column_2098 Column_2099 Column_2100 Column_2101 Column_2102 Column_2103 Column_2104 Column_2105 Column_2106 Column_2107 Column_2108 Column_2109 Column_2110 Column_2111 Column_2112 Column_2113 Column_2114 Column_2115 Column_2116 Column_2117 Column_2118 Column_2119 Column_2120 Column_2121 Column_2122 Column_2123 Column_2124 Column_2125 Column_2126 Column_2127 Column_2128 Column_2129 Column_2130 Column_2131 Column_2132 Column_2133 Column_2134 Column_2135 Column_2136 Column_2137 Column_2138 Column_2139 Column_2140 Column_2141 Column_2142 Column_2143 Column_2144 Column_2145 Column_2146 Column_2147 Column_2148 Column_2149 Column_2150 Column_2151 Column_2152 Column_2153 Column_2154 Column_2155 Column_2156 Column_2157 Column_2158 Column_2159 Column_2160 Column_2161 Column_2162 Column_2163 Column_2164 Column_2165 Column_2166 Column_2167 Column_2168 Column_2169 Column_2170 Column_2171 Column_2172 Column_2173 Column_2174 Column_2175 Column_2176 Column_2177 Column_2178 Column_2179 Column_2180 Column_2181 Column_2182 Column_2183 Column_2184 Column_2185 Column_2186 Column_2187 Column_2188 Column_2189 Column_2190 Column_2191 Column_2192 Column_2193 Column_2194 Column_2195 Column_2196 Column_2197 Column_2198 Column_2199 Column_2200 Column_2201 Column_2202 Column_2203 Column_2204 Column_2205 Column_2206 Column_2207 Column_2208 Column_2209 Column_2210 Column_2211 Column_2212 Column_2213 Column_2214 Column_2215 Column_2216 Column_2217 Column_2218 Column_2219 Column_2220 Column_2221 Column_2222 Column_2223 Column_2224 Column_2225 Column_2226 Column_2227 Column_2228 Column_2229 Column_2230 Column_2231 Column_2232 Column_2233 Column_2234 Column_2235 Column_2236 Column_2237 Column_2238 Column_2239 Column_2240 Column_2241 Column_2242 Column_2243 Column_2244 Column_2245 Column_2246 Column_2247 Column_2248 Column_2249 Column_2250 Column_2251 Column_2252 Column_2253 Column_2254 Column_2255 Column_2256 Column_2257 Column_2258 Column_2259 Column_2260 Column_2261 Column_2262 Column_2263 Column_2264 Column_2265 Column_2266 Column_2267 Column_2268 Column_2269 Column_2270 Column_2271 Column_2272 Column_2273 Column_2274 Column_2275 Column_2276 Column_2277 Column_2278 Column_2279 Column_2280 Column_2281 Column_2282 Column_2283 Column_2284 Column_2285 Column_2286 Column_2287 Column_2288 Column_2289 Column_2290 Column_2291 Column_2292 Column_2293 Column_2294 Column_2295 Column_2296 Column_2297 Column_2298 Column_2299 Column_2300 Column_2301 Column_2302 Column_2303 Column_2304 Column_2305 Column_2306 Column_2307 Column_2308 Column_2309 Column_2310 Column_2311 Column_2312 Column_2313 Column_2314 Column_2315 Column_2316 Column_2317 Column_2318 Column_2319 Column_2320 Column_2321 Column_2322 Column_2323 Column_2324 Column_2325 Column_2326 Column_2327 Column_2328 Column_2329 Column_2330 Column_2331 Column_2332 Column_2333 Column_2334 Column_2335 Column_2336 Column_2337 Column_2338 Column_2339 Column_2340 Column_2341 Column_2342 Column_2343 Column_2344 Column_2345 Column_2346 Column_2347 Column_2348 Column_2349 Column_2350 Column_2351 Column_2352 Column_2353 Column_2354 Column_2355 Column_2356 Column_2357 Column_2358 Column_2359 Column_2360 Column_2361 Column_2362 Column_2363 Column_2364 Column_2365 Column_2366 Column_2367 Column_2368 Column_2369 Column_2370 Column_2371 Column_2372 Column_2373 Column_2374 Column_2375 Column_2376 Column_2377 Column_2378 Column_2379 Column_2380
feature_infos=[0.0001041399737005122:0.99986469745635986] [1.4446191016759258e-06:0.58197718858718872] [0:0.63884550333023071] [0:0.48217573761940002] [0:0.38687571883201599] [0:0.94969630241394043] [0:0.36141759157180786] [0:0.3532252311706543] [0:0.74780654907226562] [0:0.31520918011665344] [0:0.45144078135490417] [3.8146984593367961e-07:0.39196595549583435] [0:0.37279576063156128] [0:0.41947534680366516] [0:0.52485156059265137] [0:0.2343047708272934] [1.2969974250154337e-06:0.38103899359703064] [0:0.19162434339523315] [0:0.29194363951683044] [0:0.92108798027038574] [0:0.58191400766372681] [0:0.3649442195892334] [0:0.12745858728885651] [0:0.38051080703735352] [0:0.30867657065391541] [0:0.29381686449050903] [0:0.34282296895980835] [0:0.44395816326141357] [0:0.20477604866027832] [0:0.20384292304515839] [0:0.44742614030838013] [0:0.33884048461914062] [0:0.59520763158798218] [0:0.66448420286178589] [0:0.21614664793014526] [0:0.50258880853652954] [0:0.23190057277679443] [0:0.45412248373031616] [0:0.13542607426643372] [0:0.35568869113922119] [0:0.43265238404273987] [0:0.18613377213478088] [0:0.32844692468643188] [0:0.40341839194297791] [0:0.27680376172065735] [0:0.16632489860057831] [0:0.98943996429443359] [0:0.28682360053062439] [0:0.86768001317977905] [0:0.37429711222648621] [0:0.33159205317497253] [0:0.58692747354507446] [0:0.99839377403259277] [0:0.21101528406143188] [0:0.24869462847709656] [0:0.18055808544158936] [0:0.42196553945541382] [0:0.33159869909286499] [0:0.23693647980690002] [0:0.34377971291542053] [0:0.16552777588367462] [0:0.11417721211910248] [0:0.17976221442222595] [0:0.41843938827514648] [0:0.47387236356735229] [0:0.59518569707870483] [0:0.35457012057304382] [0:0.16284926235675812] [0:0.27900242805480957] [4.8153970055864193e-07:0.16647973656654358] [0:0.52700048685073853] [0:0.11944014579057693] [0:0.24671435356140137] [0:0.40877598524093628] [0:0.16503970324993134] [0:0.31608518958091736] [0:0.33156940340995789] [4.196168390535604e-07:0.42289695143699646] [0:0.23961380124092102] [0:0.20774535834789276] [4.8153970055864193e-07:0.24128533899784088] [0:0.3317875862121582] [0:0.21975192427635193] [0:0.19303350150585175] [0:0.24096390604972839] [0:0.69947487115859985] [0:0.15378557145595551] [0:0.16579253971576691] [0:0.95789724588394165] [0:0.36348474025726318] [2.6702889499574667e-07:0.16579541563987732] [0:0.18247079849243164] [0:0.13938170671463013] [0:0.14892159402370453] [0:0.20272563397884369] [0:0.2042919248342514] [0:0.14881178736686707] [0:0.7894434928894043] [0:0.17886963486671448] [0:0.7775842547416687] [0:0.52908366918563843] [0:0.16582112014293671] [0:0.57603102922439575] [0:0.16647948324680328] [0:0.27033388614654541] [0:0.16581124067306519] [0:0.26991626620292664] [0:0.28564453125] [0:0.17936992645263672] [0:0.16580294072628021] [0:0.25040555000305176] [0:0.20932874083518982] [0:0.18847194314002991] [0:0.70199364423751831] [0:0.26992693543434143] [0:0.32833421230316162] [0:0.22776259481906891] [0:0.28185224533081055] [0:0.16580082476139069] [0:0.33178141713142395] [0:0.19493761658668518] [0:0.3664700984954834] [0:0.90581244230270386] [0:0.20049969851970673] [0:0.17285972833633423] [0:0.093192458152770996] [0:0.16817565262317657] [0:0.25994193553924561] [0:0.54682600498199463] [0:0.20929688215255737] [0:0.1873132586479187] [0:0.18057030439376831] [0:0.26945549249649048] [0:0.68637317419052124] [0:0.12558531761169434] [0:0.10766930878162384] [0:0.4285266101360321] [0:0.14208684861660004] [0:0.19635052978992462] [0:0.19287508726119995] [0:0.23959662020206451] [0:0.15020179748535156] [0:0.26927763223648071] [0:0.13685359060764313] [0:0.99391007423400879] [0:0.12240844964981079] [0:0.12213224172592163] [0:0.55119401216506958] [0:0.16500751674175262] [0:0.13880954682826996] [0:0.12497397512197495] [0:0.11551990360021591] [0:0.17300906777381897] [0:0.325123131275177] [0:0.10512011498212814] [0:0.16305804252624512] [0:0.16604861617088318] [0:0.11262169480323792] [0:0.23963372409343719] [0:0.16925761103630066] [0:0.17936280369758606] [0:0.19665424525737762] [0:0.14643190801143646] [0:0.17675791680812836] [0:0.38617244362831116] [0:0.14207538962364197] [0:0.18860332667827606] [0:0.49245971441268921] [0:0.17958252131938934] [0:0.11630889028310776] [0:0.24042968451976776] [0:0.17083679139614105] [0:0.18846668303012848] [0:0.14225403964519501] [0:0.13588276505470276] [0:0.11905449628829956] [0:0.14001898467540741] [0:0.23490378260612488] [0:0.15826050937175751] [0:0.1333744078874588] [0:0.2217848002910614] [0:0.15297387540340424] [0:0.24661992490291595] [0:0.25636479258537292] [0:0.3128204345703125] [0:0.16685114800930023] [0:0.2626652717590332] [0:0.2134091705083847] [0:0.17127317190170288] [0:0.21557153761386871] [0:0.39064213633537292] [0:0.53447604179382324] [0:0.91890943050384521] [0:0.19946326315402985] [0:0.26866185665130615] [0:0.60315805673599243] [0:0.13499091565608978] [0:0.18126185238361359] [0:0.18329349160194397] [0:0.38767534494400024] [0:0.12792216241359711] [0:0.12480761110782623] [0:0.21301902830600739] [0:0.16003012657165527] [0:0.89058727025985718] [0:0.20180463790893555] [0:0.19983762502670288] [0:0.37594622373580933] [0:0.2766459584236145] [0:0.20890165865421295] [0:0.21188616752624512] [0:0.22161310911178589] [0:0.13520394265651703] [0:0.34819534420967102] [0:0.10111860930919647] [0:0.56854373216629028] [0:0.17806324362754822] [0:0.325123131275177] [0:0.87856632471084595] [0:0.42092779278755188] [0:0.18117187917232513] [0:0.22046111524105072] [0:0.22444495558738708] [0:0.18994912505149841] [0:0.60479509830474854] [0:0.26558339595794678] [0:0.22260132431983948] [0:0.36717653274536133] [0:0.45640900731086731] [0:0.21213360130786896] [0:0.13983792066574097] [0:0.18699957430362701] [0:0.26142284274101257] [0:0.24974526464939117] [0:0.38239708542823792] [0:0.19268828630447388] [0:0.16150666773319244] [0:0.35607978701591492] [0:0.26087939739227295] [0:0.27280086278915405] [0:0.50144034624099731] [0:0.24672234058380127] [0:0.78041744232177734] [0:0.28524574637413025] [0:0.17062802612781525] [0:0.43178808689117432] [0:0.3119787871837616] [0:0.29387205839157104] [0:0.47829484939575195] [0:0.28226533532142639] [0:0.50080657005310059] [0:0.3312225341796875] [0:0.37707346677780151] [0:0.61397767066955566] [0:0.47578254342079163] [0:0.9821779727935791] [0:0.99976569414138794] [0:0.92079854011535645] [0:0.98943549394607544] [0:0.99829268455505371] [0:0.35200700163841248] [0:0.95738333463668823] [0:0.65613871812820435] [0:0.90551042556762695] [0:0.58333331346511841] [0:0.99390244483947754] [0:0.21739129722118378] [0:0.32755404710769653] [0:0.9178764820098877] [0:0.31687068939208984] [0:0.54516357183456421] [0:0.98086285591125488] [0:0.9445839524269104] [0:0.3189719021320343] [0:0.1224338561296463] [0:0.4176870584487915] [0:0.079715006053447723] [0:0.027766082435846329] [0:0.36395102739334106] [0:0.13056984543800354] [0:0.080118812620639801] [0:0.036221928894519806] [0:0.3350389301776886] [0:0.042374473065137863] [0:0.31032088398933411] [0:0.1194646880030632] [0:0.18230046331882477] [0:0.5368766188621521] [0:0.94301468133926392] [0:0.22443799674510956] [0:0.27877986431121826] [0:0.81434768438339233] [0:0.11218567192554474] [0:0.28508719801902771] [0:0.15419352054595947] [0:0.15740722417831421] [0:0.036348637193441391] [0:0.042281363159418106] [0:0.05286417156457901] [0:0.048533845692873001] [0:0.125] [0:0.87784415483474731] [0:0.13269565999507904] [0:0.33956733345985413] [0:0.92317706346511841] [0:0.37688848376274109] [0:0.6559377908706665] [0:0.66590791940689087] [0:0.34884047508239746] [0:0.36560964584350586] [0:0.40480917692184448] [0:0.66354119777679443] [0:0.33426842093467712] [0:0.23705938458442688] [0:0.2015371173620224] [0:0.23714746534824371] [0:0.50546801090240479] [0:0.27745005488395691] [0:0.45994794368743896] [0:0.62151587009429932] [0:0.875] [0:0.2781224250793457] [0:0.26155990362167358] [0:0.74605774879455566] [0:0.37194332480430603] [0:0.22428987920284271] [0:0.32818487286567688] [0:0.42504236102104187] [0:0.27808913588523865] [0:0.10027386993169785] [0:0.17154569923877716] [0:0.073673665523529053] [0:0.53429234027862549] [0:0.42046719789505005] [0:0.26093399524688721] [0:0.69858729839324951] [0:0.82942706346511841] [0:0.29927006363868713] [0:0.28482076525688171] [0:0.52034181356430054] [0:0.53346192836761475] [0:0.39615201950073242] [0:0.33160722255706787] [0:0.33159276843070984] [0:0.24298229813575745] [0:0.31074574589729309] [0:0.37696915864944458] [0:0.24230813980102539] [0:0.49181640148162842] [0:0.24045552313327789] [0:0.13992471992969513] [0:0.37931203842163086] [0:0.78432995080947876] [0:0.42949143052101135] [0:0.36698353290557861] [0:0.58122861385345459] [0:0.46423864364624023] [0:0.39905038475990295] [0:0.39712449908256531] [0:0.26273602247238159] [0:0.38571429252624512] [0:0.3249337375164032] [0:0.22086438536643982] [0:0.25628799200057983] [0:0.34942775964736938] [0:0.32493460178375244] [0:0.3249380886554718] [0:0.32590553164482117] [0:0.73486328125] [0:0.24165260791778564] [0:0.408124178647995] [0:0.49714377522468567] [0:0.33158710598945618] [0:0.49643343687057495] [0:0.43703705072402954] [0:0.21046973764896393] [0:0.15142229199409485] [0:0.2825520932674408] [0:0.41575056314468384] [0:0.1940569132566452] [0:0.42977052927017212] [0:0.32827383279800415] [0:0.1873982697725296] [0:0.30467882752418518] [0:0.673583984375] [0:0.28471565246582031] [0:0.39506500959396362] [0:0.32340550422668457] [0:0.30121815204620361] [0:0.27036458253860474] [0:0.36929148435592651] [0:0.20996308326721191] [0:0.26584106683731079] [0:0.23943662643432617] [0:0.43690204620361328] [0:0.18348488211631775] [0:0.17442029714584351] [0:0.20569565892219543] [0:0.4510498046875] [0:0.27134180068969727] [0:0.64111328125] [0:0.19881294667720795] [0:0.3018624484539032] [0:0.30853646993637085] [0:0.30480742454528809] [0:0.33158445358276367] [0:0.34642046689987183] [0:0.21305447816848755] [0:0.20355710387229919] [0:0.10609080642461777] [0:0.18857020139694214] [0:0.156982421875] [0:0.28905582427978516] [0:0.18972910940647125] [0:0.16537937521934509] [0:0.25615426898002625] [0:0.5556640625] [0:0.2721819281578064] [0:0.21446384489536285] [0:0.19851832091808319] [0:0.21484375] [0:0.1547473669052124] [0:0.2376708984375] [0:0.1596883088350296] [0:0.14954793453216553] [0:0.12669819593429565] [0:0.13144925236701965] [0:0.15055231750011444] [0:0.18092840909957886] [0:0.16760824620723724] [0:0.2300579696893692] [0:0.20260514318943024] [0:0.51318359375] [0:0.27989038825035095] [0:0.23104366660118103] [0:0.44911107420921326] [0:0.21533203125] [0:0.15142962336540222] [0:0.24052734673023224] [0:0.17959879338741302] [0:0.21417798101902008] [0:0.18013831973075867] [0:0.33200684189796448] [0:0.1452169269323349] [0:0.19676339626312256] [0:0.26552167534828186] [0:0.11582072079181671] [0:0.4626069962978363] [0:0.45263671875] [0:0.13877841830253601] [0:0.15907023847103119] [0:0.33523693680763245] [0:0.196044921875] [0:0.13671875] [0:0.25595998764038086] [0:0.17008496820926666] [0:0.23969629406929016] [0:0.24240879714488983] [0:0.1441650390625] [0:0.21604883670806885] [0:0.31439656019210815] [0:0.15430545806884766] [0:0.16529117524623871] [0:0.35798487067222595] [0:0.35693359375] [0:0.27357986569404602] [0:0.29160183668136597] [0:0.24578230082988739] [0:0.18807116150856018] [0:0.18543092906475067] [0:0.1705702543258667] [0:0.13514874875545502] [0:0.161224365234375] [0:0.17917996644973755] [0:0.23630914092063904] [0:0.12519285082817078] [0:0.23438055813312531] [0:0.095394119620323181] [0:0.18598122894763947] [0:0.3290325403213501] [0:0.29683861136436462] [0:0.15537437796592712] [0:0.22671088576316833] [0:0.1803126186132431] [0:0.2055511474609375] [0:0.12863574922084808] [0:0.20671218633651733] [0:0.15373478829860687] [0:0.1583658903837204] [0:0.13037712872028351] [0:0.15124136209487915] [0:0.23476012051105499] [0:0.29174789786338806] [0:0.13163487613201141] [0:0.29343444108963013] [0:0.17263349890708923] [0:0.20478332042694092] [0:0.13462181389331818] [0:0.13748568296432495] [0:0.16232688724994659] [0:0.14026917517185211] [0:0.11609968543052673] [0:0.12476781010627747] [0:0.13432608544826508] [0:0.13304327428340912] [0:0.10985801368951797] [0:0.11937318742275238] [0:0.15909017622470856] [0:0.13502544164657593] [0:0.134731724858284] [0:0.12518833577632904] [0:0.18587692081928253] [1:2487230] [5:207990.921875] [5:50346872] [0:0.98097634315490723] [0:0.89032119512557983] [0:0.73864555358886719] [0:0.92125475406646729] [0:0.92907601594924927] [0:0.93523102998733521] [0:0.51105397939682007] [0:0.87022662162780762] [0:0.53153479099273682] [0:0.8791472315788269] [0:0.62412643432617188] [0:0.89759737253189087] [0:0.65373653173446655] [0:0.52583998441696167] [0:0.99912947416305542] [0:0.54079639911651611] [0:0.99120205640792847] [0:0.66839146614074707] [0:0.81635409593582153] [0:0.8855597972869873] [0:0.99994230270385742] [0:0.49571594595909119] [0:0.75406646728515625] [0:0.61392629146575928] [0:0.96936947107315063] [0:0.52635020017623901] [0:0.88626712560653687] [0:0.60437542200088501] [0:0.61841070652008057] [0:0.80621623992919922] [0:0.3921457827091217] [0:0.97819668054580688] [0:0.94689005613327026] [0:0.70947688817977905] [0:0.8166700005531311] [0:0.47037419676780701] [0:0.82750093936920166] [0:0.78142672777175903] [0:0.96199393272399902] [0:0.51956886053085327] [0:0.74380141496658325] [0:0.89945554733276367] [0:0.40185016393661499] [0:0.85703235864639282] [0:0.88808101415634155] [0:0.94748818874359131] [0:0.3993975818157196] [0:0.84183359146118164] [0:0.52167117595672607] [0:0.39851281046867371] [0:0.81145548820495605] [0:0.62157249450683594] [0:0.93545138835906982] [0:0.95048367977142334] [0:0.61409848928451538] [0:0.4358099102973938] [0:0.99834603071212769] [0:0.89257305860519409] [0:0.73083144426345825] [0:0.68704259395599365] [0:0.65772396326065063] [0:0.55585289001464844] [0:0.91299480199813843] [0:0.81680554151535034] [0:0.67990517616271973] [0:0.98582017421722412] [0:0.84656572341918945] [0:0.98665362596511841] [0:0.7892606258392334] [0:0.72118526697158813] [0:0.86510264873504639] [0:0.54528379440307617] [0:0.50742524862289429] [0:0.5777660608291626] [0:0.43639227747917175] [0:0.73726129531860352] [0:0.36011740565299988] [0:0.69908982515335083] [0:0.93341636657714844] [0:0.58836716413497925] [0:0.87140268087387085] [0:0.98053187131881714] [0:0.5659063458442688] [0:0.86578327417373657] [0:0.88930022716522217] [0:0.75] [0:0.75885522365570068] [0:0.95614033937454224] [0:0.50725466012954712] [0:0.96878480911254883] [0:0.9985424280166626] [0:0.87927353382110596] [0:0.48288020491600037] [0:0.37364843487739563] [0:0.56314224004745483] [0:0.84983235597610474] [0.001253837370313704:6.5849494934082031] [0:56442] [0:9409] [0:2492] [1:7638] [234:319288640] [512:4278288384] [0:1] [0:51640] [0:21344] [0:1] [0:1] [0:1] [0:1] [0:188837] [0:4294967296] none [-1:1] [0:1] [0:1] [-1:0] [0:1] [-1:1] [-1:0] none none [-1:0] none [-1:0] [-1:3] [-2:0] [-1:0] [-1:1] [0:1] [-1:1] [0:1] [0:1] none [-1:0] none [-1:0] none [-1:1] [-1:1] [-1:1] [-1:0] [0:1] [-2:1] none [-1:2] [-1:0] [-1:0] none [-1:0] [-1:0] none none [-1:0] none none [0:1] none none none none none [0:62679] [0:62240] [0:255] [0:255] [0:65535] [0:37377] [0:57860] [0:65280] [0:4294967296] [0:285213184] [0:2073741824] [0:167] [0:84] [0:20] [0:138] [0:93] [-10534568:578713600] [-32366592:23533568] [-12583424:9351680] [-9470239:12308992] [-6383095:8284672] [-18087936:4563456] [-22522368:40566784] [-57328640:2100224] [-12293120:15570432] [-7603886:7462912] [-118620160:7147008] [-25633552:4927488] [-27253760:7776768] [-5589504:12680192] [-5459968:2415919104] [-4726272:6324736] [-4716544:4278161408] [-12294144:14340096] [-7492608:11691520] [-10516480:21889024] [-4278190080:7135744] [-7144448:7036928] [-10873344:27885568] [-18161664:25747456] [-10381824:25247232] [-21900800:6568448] [-3304960:51727872] [-16455168:3450880] [-47060992:9424896] [-12778496:24613376] [-1794560:6606848] [-67571712:12646912] [-39554048:9736192] [-6083072:58315264] [-2939904:28394408] [-14321664:894104064] [-6611849:2508288] [-12287488:10431488] [-31862784:13485568] [-8187904:3089408] [-10008576:4816896] [-184549376:7135744] [-9421824:5757952] [-5582848:610186752] [-12285952:5153792] [-34184192:32269688] [-11404800:15880192] [-18126336:14588928] [-5412352:6888960] [-10756096:3433984] [-7.992271900177002:77.728179931640625] [-15.930702209472656:7.9987587928771973] [-15.571069717407227:39.950992584228516] [-36.078113555908203:15.389224052429199] [-15.95733642578125:21.131023406982422] [-24.490167617797852:7.9997458457946777] [-232.30552673339844:7.9996294975280762] [-22.11688232421875:7.9998631477355957] [-14.815167427062988:14.231996536254883] [-13.934165000915527:19.220184326171875] [-7.9999895095825195:131.6846923828125] [-56.62127685546875:13.462446212768555] [-11.006683349609375:15.306022644042969] [-10.947208404541016:12.107828140258789] [-7.9998159408569336:73.680000305175781] [-23.332941055297852:37.240463256835938] [-13.325701713562012:31.423244476318359] [-15.943629264831543:15.924150466918945] [-15.819186210632324:10.214162826538086] [-654.64990234375:15.043258666992188] [-15.76881217956543:7.9996275901794434] [-15.998476028442383:31.622760772705078] [-18.665929794311523:15.90846061706543] [-15.921699523925781:36.299880981445312] [-15.675150871276855:19.289134979248047] [-25.559585571289062:9.6325016021728516] [-23.762502670288086:19.945821762084961] [-41.912540435791016:7.9996852874755859] [-15.84527587890625:11.771100997924805] [-9.7116909027099609:7.9996228218078613] [-7.9996347427368164:15.365236282348633] [-14.565211296081543:54.932960510253906] [-97.404067993164062:7.9999403953552246] [-12.08528995513916:15.953179359436035] [-15.977595329284668:15.266731262207031] [-14.114391326904297:9.3867120742797852] [-15.154199600219727:16.752660751342773] [-18.435129165649414:36.433982849121094] [-32.106014251708984:22.700555801391602] [-15.92216968536377:15.848713874816895] [-63.245353698730469:14.446666717529297] [-450.80062866210938:31.991605758666992] [-21.125900268554688:15.930113792419434] [-12.626927375793457:94.924537658691406] [-7.9996066093444824:15.927393913269043] [-66.06695556640625:15.502218246459961] [-10.96522045135498:29.232700347900391] [-15.920066833496094:20.398822784423828] [-13.171438217163086:8.0977945327758789] [-15.433562278747559:7.9997148513793945] [-10543104:746475328] [-32366592:23535616] [-730857472:9351248] [-8075966:12393124] [-107597824:1631782912] [-594743296:11678976] [-22522028:40566392] [-57331712:9228288] [-12292976:12387994] [-17950800:7462912] [-118617600:7147520] [-31326208:12013568] [-26157056:7776544] [-22351872:24989696] [-6170258:75828944] [-6803968:9210312] [-12656640:268436576] [-12293712:36073472] [-7492384:11691184] [-15519744:21889024] [-2034369536:12393124] [-12398592:101711872] [-24952832:207818752] [-18160496:44436608] [-10381540:26030580] [-21902608:7228554] [-6238382:51727832] [-19927040:16179200] [-47063040:9424784] [-12779520:600834048] [-6156816:9924608] [-29065216:37691392] [-734014848:9714624] [-15921152:58314768] [-3559424:400588800] [-71553024:894107648] [-6705152:32138328] [-12287184:77676544] [-50103120:13485100] [-137736192:175412736] [-12252248:21291008] [-536874048:3780608] [-9424896:110410024] [-7069604:610189312] [-12285520:13164544] [-34185216:32272384] [-12393124:15876487] [-1634036864:31467936] [-12898304:1951622528] [-9592832:3433872] [-1:1] [-1:1] [-1:1] [-1:1] [-1:1] [-1:1] [-1:1] [-1:1] [-1:1] [-1:1] [-1:1] [-1:1] [-1:1] [-1:1] [-1:1] [-1:1] [-1:1] [-1:1] [-1:1] [-1:1] [-1:1] [-1:1] [-1:1] [-1:1] [-1:1] [-1:1] [-1:1] [-1:1] [-1:1] [-1:1] [-1:1] [-1:1] [-1:1] [-1:1] [-1:1] [-1:1] [-1:1] [-1:1] [-1:1] [-1:1] [-1:1] [-1:1] [-1:1] [-1:1] [-1:1] [-1:1] [-1:1] [-1:1] [-1:1] [-1:1] [0:18] none [-3:0] none [0:8] none none none [0:13] [0:8] [-8:0] none none [-138:0] [0:1] none none none [-1:0] none none [0:14] [-2:10] [-1:138] none [-1:0] none none [0:69] none none none none none [0:1] [-4:1] [0:3] [0:15] none none [0:1] none [0:1] none none [0:14] [0:1] [-69:0] [-10:0] [0:12] [-1:2] [-1:1] [-2:2] [-2:2] [-1:3] [-1:2] [-1:2] [-2:1] [-2:2] [-1:2] [-2:2] [-2:2] [-1:2] [-2:1] [-1:1] [-1:2] [-2:2] [-2:1] [-1:1] [-1:1] [-2:2] [-1:2] [-2:1] [-1:2] [-2:1] [-2:2] [-2:2] [-2:2] [-2:1] [-1:2] [-3:1] [-1:2] [-2:2] [-1:2] [-1:2] [-1:2] [-2:2] [-1:2] [-3:2] [-1:2] [-2:2] [-1:1] [-2:2] [-3:2] [-1:1] [-1:3] [-2:1] [-2:1] [-2:1] [-2:1] [-2:2] [-2:2] [-2:2] [-2:2] [-2:3] [-1:2] [-1:1] [-1:2] [-2:1] [-2:2] [-2:2] [-2:1] [-1:2] [-2:2] [-1:2] [-1:2] [-2:1] [-2:2] [-2:1] [-1:2] [-2:2] [-1:1] [-2:1] [-1:1] [-2:2] [-2:2] [-1:2] [-1:1] [-1:2] [-1:1] [-2:1] [-2:2] [-1:2] [-2:2] [-2:2] [-1:2] [-2:2] [-2:2] [-2:1] [-2:1] [-2:2] [-1:2] [-1:2] [-2:2] [-2:1] [-2:2] [-2:2] [-1:2] [-2:2] [-1:1] [-3:3] [-1:2] [-1:2] [-1:2] [-1:4] [-2:1] [-2:2] [-2:2] [-2:1] [-2:1] [-1:2] [-1:2] [-1:2] [-1:1] [-2:2] [-1:1] [-2:1] [-1:2] [-2:2] [-2:2] [-2:2] [-1:3] [-2:2] [-1:1] [-2:2] [-2:1] [-1:1] [-2:2] [-2:1] [-2:1] [-2:2] [-1:2] [-2:1] [-2:1] [-2:2] [-2:1] [-1:1] [-1:2] [-2:2] [-2:2] [-1:2] [-1:1] [-2:3] [-1:1] [-2:1] [-3:2] [-1:1] [-2:1] [-2:1] [-2:1] [-2:1] [-2:2] [-2:2] [-1:1] [-2:1] [-2:2] [-1:2] [-1:1] [-2:1] [-2:2] [-2:1] [-2:2] [-2:2] [-1:1] [-3:1] [-2:2] [-2:1] [-1:1] [-2:2] [-3:2] [-1:2] [-1:2] [-1:2] [-2:1] [-2:1] [-1:2] [-1:1] [-1:1] [-2:1] [-2:2] [-1:1] [-2:1] [-1:1] [-2:1] [-2:2] [-1:2] [-1:2] [-2:2] [-2:1] [-2:1] [-2:1] [-1:2] [-1:2] [-2:2] [-2:2] [-2:1] [-2:2] [-1:1] [-2:1] [-1:1] [-1:3] [-2:3] [-1:1] [-2:1] [-2:1] [-2:1] [-1:1] [-1:1] [-1:2] [-2:1] [-2:2] [-1:1] [-2:2] [-2:1] [-2:1] [-2:2] [-1:2] [-1:2] [-1:2] [-1:2] [-2:2] [-3:2] [-1:2] [-1:2] [-2:2] [-2:2] [-1:1] [-1:1] [-1:2] [-2:1] [-2:1] [-2:1] [-1:2] [-2:1] [-2:1] [-2:2] [-1:1] [-2:2] [-2:2] [-1:4] [-2:2] [-2:1] [-2:2] [-2:1] [-2:2] [-2:2] [-2:2] [-2:1] [-1:3] [-2:3] [-1:2] [-1:1] [-1:2] [-2:1] [-1:1] [-2:2] [-5:7] [-23:6] [-6:33] [-6:9] [-31:6] [-9:754] [-31:496] [-80:12] [-7:25] [-6:12] [-7:548] [-6:5] [-14:10] [-30:19] [-7:3122] [-7:71] [-13:887] [-7:5] [-19:3738] [-25:8] [-11:32] [-15:21] [-26:10] [-18:5] [-6:6] [-37:2395] [-10:9] [-58:31] [-17:12] [-11:11] [-4:241] [-5:11] [-9:35] [-9:15] [-6:6] [-33:7] [-7:5] [-36:6] [-17:12] [-5:31] [-6:10] [-6:19] [-25:2023] [-7:18] [-6:20] [-3625:33] [-8:5] [-33:16] [-4:17] [-6:12] [-24:56] [-10:8] [-6:16] [-10:11] [-20:11] [-27:6] [-46:9] [-36:11] [-5:6] [-132:7] [-8:18] [-20:6] [-5:6] [-10:11] [-5:9] [-42:9] [-12:5] [-6:7] [-7:303] [-11:16] [-10:6] [-93:62] [-10:22] [-5:9] [-7:31] [-13:42] [-7:52] [-12:5] [-6:7] [-5:6] [-9:1329] [-7:23] [-40:8] [-12:18] [-7:7] [-2511:5] [-50:5] [-4:12] [-411:3569] [-5:28] [-5:28] [-67:7] [-6:50] [-25:6] [-6:10] [-29:5] [-9:17] [-7:48] [-19:4] [-7:9] [-6:7] [-5:20] [-6:27] [-16:6] [-11:346] [-10:7] [-18:8] [-2896:25] [-57:8] [-10:9] [-6:16] [-7:1242] [-5:37] [-29:20] [-4:15] [-7:24] [-58:22] [-12:7] [-8:14] [-9:17] [-1382:9] [-5:434] [-28:8] [-7:19] [-16:20] [-7:8] [-28:5] [-6:8] [-6:12] [-2186:11] [-9:29] [-23:15] [-132:20] [-41:441] [-6:6] [-19:26] [-7:5] [-43:11] [-976:6] [-1385:5] [-9:7] [-8:38] [-7:111] [-15:55] [-19:6] [-122:54] [-415:21] [-14:5] [-13:6] [-13:15] [-26:6] [-8:8] [-7:16] [-11:10] [-46:6] [-54:2794] [-20:12] [-10:10] [-44:12] [-13:6] [-27:10] [-16:7] [-41:61] [-31:20] [-8:361] [-34:12] [-23:368] [-6:51757] [-18:7] [-35:7] [-6:106] [-6:36] [-22:10] [-14:8] [-6:157] [-26:13] [-8:23] [-7:12] [-10:92] [-1244:4] [-6:22] [-8:25] [-3862:60] [-5:6] [-52:8] [-8:7] [-14:249] [-50:14] [-6:21] [-7:23] [-9:11] [-29:9] [-8:132] [-23:3462] [-136:5] [-1835:29] [-6:42] [-12:5] [-13:7] [-15:34] [-8:30] [-52:7] [-14:9] [-8:1302] [-5:38] [-30:25] [-10:5] [-10:16] [-11:6] [-6:407] [-5:13] [-7:197] [-9:26] [-1225:17] [-8:6] [-8:14] [-5:18] [-7:16] [-6:11] [-8:2715] [-26:8] [-10:32] [-10:7] [-12:13] [-12:61] [-8:131] [-17:4133] [-6:1489] [-47:7] [-1604:11] [-56:23] [-7:20] [-7:8] [-25:5] [-40:5] [-9:7] [-453:11] [-6:6] [-13:6] [-11:9] [-5:7] [-5:63] [-63:7] [-799:5] [-8:1259] [-15:5] [-10:36] [-12:5] [-6:9] [-6:23] [-6:11] [-14:38] [-280:19] [-30:6] [-12:7] [-6:11] [-10:10] [-9:13] [-12:2967] [-12:78] [-41:12] [-8:2910] [-15:1128] [-10:9] [-11:20] [-1571:406] [-5:9] [-5:24] [-7:6] [-24:8] [-21098:7] [-8:4] [-17:6] [-28:99] [-8:7] [-8:7] [-6:16] [-7:11] [-6:19] [-9:43] [-22:7] [-31:38] [-22:4] [-7:46] [-6:6] [-6:13] [-8:1782] [-8:5] [-11:14] [-704:13] [-6:36] [-5:8] [-12:9] [-1475:70] [-11:16] [-48:9] [-618:6] [-5:21] [-26:5] [-35:23] [-988:1578] [-9:122] [-19:10] [-43:15] [-19:307] [-5:337] [-7:14] [-30:7] [-13:8] [-6:18] [-60:125] [-18:4] [-5:51] [-7:2660] [-16:10] [-12:13] [-2278:33] [-5389:2697] [-10:27] [-7:9] [-14:39] [-7:22] [-9:8] [-6:5] [-8:9] [-21:7] [-12:4] [-7:10] [-12:36] [-11:6] [-4:44] [-6:6] [-5:41] [-10:57] [-7:37] [-8:5] [-17:18] [-18:6] [-10:8] [-21:6] [-6:34] [-91:32] [-213:21] [-18:6] [-4:36] [-4:20] [-7:6] [-8:9] [-19:8] [-10:65] [-6:12] [-19:5] [-62:9] [-8:23] [-12:41] [-6:62] [-1338:36] [-13:8] [-6:39] [-7:11] [-7:55] [-7:14] [-26:1430] [-9:29] [-10:28] [-6:7] [-14:6] [-6:8] [-12:60] [-8:1084] [-7:6] [-183:14] [-4:11] [-7:69] [-8:21] [-7:461] [-7:5] [-140519:6] [-8:31] [-6:1939] [-37:7] [-8:16] [-9:47] [-5:567] [-10:17] [-26:6] [-19:235] [-4:21] [-1884:18] [-1166:334] [-4:17] [-21:10] [-4016:21] [-28:7] [-22:5] [-7:6] [-22:6] [-2598:27] [-623:36] [-10:46] [-6:6] [-43:6] [-10:8] [-102:16] [-5:8] [-7:29] [-8:6] [-19:6] [-40:10] [-30:9] [-13:38] [-10:39] [-16:6] [-31:10] [-5:15] [-7:8] [-3509:5] [-7:12] [-27:10] [-26:9] [-6:8] [-1526:8] [-6:38] [-12:9] [-9:7] [-167:5] [-30:7] [-18:8] [-37:17] [-7:35] [-2550:27] [-709:15] [-7:19] [-8:25] [-136:12] [-10:969] [-6:10] [-956:16] [-1574:21] [-11:10] [-8:18] [-6:35] [-10:390] [-6:11] [-7:6] [-7:10] [-41:96] [-29:9] [-7:6] [-33:2767] [-5:61] [-6:12] [-16:8] [-5:25] [-25:6] [-1137:6] [-20:9] [-7:9] [-8:16] [-6:12] [-188:23] [-29:5] [-7:18] [-22:7] [-9:15] [-1751:43] [-8:14] [-9:1001] [-5:32] [-5:5] [-7:34] [-7:242] [-9:21] [-13:12] [-34:6] [-8:10] [-24:13] [-2770:23] [-6:1562] [-8:5] [-5:66] [-5:12] [-9:11] [-13:8] [-30:5] [-33:6] [-180:22] [-333:14] [-17:6] [-42:11] [-22:379] [-29:15] [-12:16] [-5:5] [-67:6] [-7:24] [-40:10] [-38:22] [-10:6] [-6:11] [-3080:8] [-10:6] [-7:18] [-3951:16] [-3410:23] [-6:7] [-8:17] [-20:7] [-18:14] [-17:6] [-5:45] [-5:23] [-14:5] [-16:8] [-10:724] [-13:37] [-8:8] [-12:5] [-8:10] [-418:11] [-13:8] [-13:12] [-27:9] [-165:8] [-7:10] [-22:51] [-5:11] [-101:747] [-6:68] [-18:8] [-7:7] [-7:5] [-22:5] [-34:8] [-7:7] [-18:9] [-6:18] [-4:10] [-17:47] [-5:33] [-6:22] [-53:5] [-3172:170] [-6:23] [-438:18] [-5:25] [-8:11] [-6:5] [-6:9] [-6:28] [-34:5] [-4:38] [-13:8] [-87:5] [-5:53] [-8:8] [-15:13] [-9:6] [-295:8] [-11:5] [-14:8] [-8:8] [-9:1291] [-586:8] [-5:6] [-24:23] [-8:16] [-19:508] [-7:22] [-28:8] [-34:5] [-6:7] [-44:142] [-8:39] [-6:16] [-37:7] [-5:6] [-9:8] [-8:9] [-7:295] [-8:11] [-1176:10] [-26:11] [-35:7] [-7:6] [-1225:5] [-6:56] [-21:12] [-12:5] [-7:11] [-4:37] [-28:10] [-5:2824] [-26:6] [-8:9] [-7:25] [-5:23] [-13:10] [-8:2758] [-14:8] [-28:8] [-253:24] [-14:14] [-26:5] [-18:12] [-31:76] [-5:52] [-31:6] [-1289:5] [-5:32] [-8:6] [-28:8] [-12:5] [-73:4] [-45:8] [-20:11] [-15:9] [-7:21] [-8:22] [-42:11] [-16:13] [-23:7] [-23:5] [-8:29] [-15:23] [-8:18] [-7:20] [-43:50] [-6:12] [-5:15] [-15:7] [-1022:7] [-10:14] [-8:1277] [-11:8] [-5:19] [-20:15] [-5:9] [-7:6] [-7:30] [-15:31] [-6:45] [-5:23] [-45:7] [-17:74] [-30:11] [-15:8] [-5:566] [-5:56] [-7:196] [-6:20] [-5:2967] [-11:9] [-6:9] [-36:10] [-22:8] [-1061:6] [-17:6] [-840:15] [-5:6] [-6:18] [-7:22] [-36:8] [-6:9] [-30:7] [-34:7] [-2899:46] [-2915:16] [-15:24] [-13:10] [-7:5] [-9:8] [-22:5] [-7:142] [-8:5] [-6:25] [-10:8] [-3223:6] [-17:25] [-10:16] [-24:10] [-24:5] [-665:7] [-11:6] [-583:13] [-7:5] [-7:26] [-13:8] [-7:1616] [-10:34] [-32:60] [-9:5] [-12:6] [-25:14] [-757:7] [-32:6] [-11:6] [-10:48] [-8:53] [-8:5] [-119:13] [-8:41] [-33:6] [-12:6] [-8:6] [-6:25] [-12:7] [-51:6] [-10:8] [-16:7] [-22:5] [-10:5] [-7:20] [-9:7] [-7:13] [-11:28] [-6:263] [-25:5] [-8:44] [-8:7] [-12:10] [-8:16] [-9:11] [-10:10] [-1679:19] [-12:7] [-6:121] [-10:11] [-922:12] [-12:6] [-6:12] [-9:26] [-42:7] [-7:1983] [-7:7] [-10:3022] [-2426:10] [-6:10] [-38:7] [-25:9] [-6:33] [-16:6] [-48:1084] [-12:9] [-272:16] [-6:11] [-20:30] [-7:24] [-2460:7] [-20:7] [-6:127] [-2224:94] [-6:9] [-24:10] [-20:6] [-34:7] [-6:20] [-27:7] [-7:18] [-13:329] [-10:5] [-5:41] [-7:10] [-12:161] [-6:7] [-4:36] [-10:7] [-11:8] [-47:46] [-827:6] [-19:10] [-7:16] [-8:1832] [-24:20] [-13:11] [-18:138] [-15:15] [-7:10] [-2131:7] [-11:21] [-6:10] [-6:35] [-10:12] [-9:5] [-15:171] [-17:5] [-7:33] [-5:30] [-29:5] [-10:28] [-6:7] [-1314:26] [-22:25] [-2953:5] [-14:114] [-6:22] [-7:11] [-20:22] [-2868:5] [-14:261] [-19:18] [-46:583] [-6:11] [-18:7] [-8:9] [-38:7] [-4:7] [-5:1631] [-8:384] [-36:61] [-5:10] [-5:27] [-5:16] [-26:4] [-7:8] [-10:7] [-10:29] [-6:10] [-7:51] [-20:6] [-12:283] [-4:6] [-5:6] [-6:32] [-29:13] [-1398:7] [-21:19] [-8:11] [-9:254] [-26:7] [-103:10] [-5:25] [-5:11] [-9:14] [-9:8] [-22:7] [-7:6] [-6:27] [-13:21] [-44:443] [-552:5] [-22:5] [-7:6] [-7:5] [-14:9] [-27:47] [-13:86] [-8:7] [-6:15] [-12:6] [-25:7] [-4:31] [-6:5] [-2712:7] [-9:21] [-22:8] [-39:11] [-5:241] [-8:36] [-13:5] [-8:363] [-6:119] [-7:9] [-8:20] [-6:12] [-7:8] [-15:11] [-29:422] [-18:6] [-6:18] [-10:36] [-10:7] [-10:44] [-4:31] [-16:19] [-6:9] [-18:5] [-9:10] [-9:9] [-6:15] [-8:5] [-503:220] [-6:16] [-9:15] [-6:27] [-6:5] [-74:5] [-11:51] [-11:7] [-5:15] [-15:7] [-6:5] [-6:7] [-13:45] [-23:7] [-6:9] [-72:9] [-6:10] [-32:5] [-7:17] [-5:2850] [-5:117] [-5:23] [-8:12] [-1029:8] [-6:43] [-24:5] [-5:12] [-11:46] [-13:11] [-61:4183] [-5:57] [-6:36] [-14:3855] [-17:6] [-12:27] [-6:5] [-7:3071] [-20:18] [-6:39] [-10:48] [-31:15] [-34:6] [-10:33] [-11:21] [-9:18] [-46:6] [-7:8] [-16:5] [-29:5] [-654:6] [-3277:8] [-2686:22] [-11:5] [-28:5] [-26:5] [-316:920] [-170:30] [-29:8] [-5:8] [-6:6] [-13:47] [-982:7] [-17:12] [-6:801] [-18:7] [-6:9] [-18:3230] [-28:6] [-9:21] [-46:8] [-18:13] [-41:6] [-29:146] [-13:5] [-20:9] [-15:5] [-14:10] [-26:11] [-37:5] [-10:16] [-5:15] [-43:16] [-7:28] [-6:12] [-51:7] [-9:7] [-45:41] [-25:6] [-6:9] [-8:3027] [-45:1020] [-5:24] [-7:10] [-12:5] [-12:8] [-2021:13] [-27:7] [-5:9] [-9:35] [-11:10] [-3419:26] [-6:21] [-12:2175] [-4:6] [-10:11] [-7:25] [-8:31] [-20:10] [-6:6] [-1146:7] [-7:180] [-5:16] [-9:84] [-7:7] [-8:10] [-9:39] [-42:11] [-7:45] [-11:13] [-6:5] [-66:59] [-6:23] [-7:488] [-6:18] [-33:37036] [-5:7] [-18:19] [-5:164] [-9:8] [-9:9] [-5:657] [-19:8] [-7:9] [-38:7] [-14:6] [-20:7] [-8:13] [-8:47] [-9:6] [-54:34] [-9:12] [-10:14] [-24:4274] [-32:88] [-26:41] [-30:38] [-123:31] [-57:49] [-30:29] [-22:39] [-54:27] [-23:87] [-36:42] [-55:77] [-46:31] [-125:54] [-42:35] [-22:32] [-89:42] [-53:49] [-27:38] [-24:40] [-46:23] [-82:55] [-47:22] [-26:20] [-55:26] [-27:36] [-43:54] [-39:38] [-162:29] [-42:71] [-84:49] [-27:28] [-26:55] [-57:44] [-32:85] [-129:23] [-39:69] [-22:87] [-79:26] [-49:38] [-36:128] [-47:28] [-20:85] [-40:37] [-25:82] [-43:83] [-116:30] [-27:32] [-25:125] [-32:21] [-3808:73] [-27:37] [-48:46] [-19:39] [-41:22] [-89:37] [-39:37] [-41:26] [-121:34] [-28:92] [-26:42] [-130:30] [-26:43] [-32:82] [-20:49] [-36:40] [-45:36] [-46:41] [-23:31] [-31:23] [-32:48] [-25:84] [-31:164] [-20:37] [-33:35] [-35:42] [-25:43] [-55:87] [-27:40] [-48:23] [-23:50] [-29:41] [-49:41] [-57:24] [-33:84] [-22:47] [-20:46] [-54:170] [-41:29] [-29:81] [-85:36] [-71:22] [-31:38] [-125:59] [-38:31] [-127:42] [-42:22] [-85:39] [-26:41] [-81:25] [-48:27] [-65:21] [-79:41] [-71:33] [-20:27] [-31:54] [-20:24] [-81:28] [-29:24] [-22:28] [-21:44] [-54:34] [-19:38] [-57:40] [-134:35] [-39:35] [-76:24] [-31:42] [-41:23] [-27:20] [-81:23] [-55:34] [-93:39] [-43:62] [-67:41] [-83:24] [-23:82] [-29:17] [-50:20] [0:4294967296] [0:4294967296] [0:4294963200] [0:771625984] [0:610186688] [0:771629056] [0:3191769856] [0:2906158848] [0:4082706176] [0:4294967296] [0:2348796160] [0:735014912] [0:4294963200] [0:4294967296] [0:1097035648] [0:1349805440] [0:29555] [0:1701995648] [0:8428] [0:602420416] [0:3286756352] [0:3590279936] [0:4278219520] [0:3300199168] [0:18660876] [0:3914422016] [0:3771925760] [0:3823243264] [0:3758096384] [0:2784188672]
tree_sizes=3354 3617 3640 3627 3637 3644 3644 3624 3643 3640 3660 3630 3639 3627 3657 3626 3646 3630 3644 3634 3628 3647 3639 3637 3634 3652 3646 3654 3634 3627 3661 3635 3645 3629 3664 3642 3663 3646 3662 3640 3647 3659 3647 3664 3648 3671 3642 3661 3643 3652 3654 3656 3672 3667 3656 3661 3662 3675 3689 3652 3671 3661 3669 3656 3639 3687 3666 3657 3671 3659 3645 3682 3688 3684 3674 3655 3669 3681 3661 3646 3669 3663 3682 3655 3685 3677 3656 3669 3653 3640 3677 3672 3676 3662 3657 3670 3678 3665 3662 3671 3680 3634 3668 3684 3689 3704 3657 3683 3655 3672 3651 3676 3668 3673 3684 3665 3690 3636 3656 3650 3640 3656 3670 3658 3653 3673 3675 3649 3675 3642 3672 3640 3661 3656 3663 3678 3668 3661 3658 3702 3682 3627 3667 3662 3646 3668 3642 3668 3654 3664 3669 3675 3630 3611 3655 3684 3638 3637 3629 3650 3651 3587 3641 3666 3667 3601 3655 3664 3630 3673 3629 3612 3665 3628 3634 3645 3610 3632 3623 3681 3633 3651 3610 3673 3620 3665 3623 3642 3632 3653 3663 3668 3673 3619 3641 3649 3657 3645 3636 3670

Tree=0
num_leaves=31
num_cat=0
split_feature=637 2359 503 611 125 665 2377 2359 2355 55 2364 493 655 1597 497 784 632 736 679 2360 598 128 1876 25 32 126 692 1060 685 784
split_gain=92618.8 52342.3 28444.7 14128.2 12878.5 8088.81 7367.1 6614.45 5063.68 4509.34 4473.31 4345.06 4277.97 4117.79 3079.5 2852.95 2826.17 2463.53 2281.78 2340.54 2220.73 2181.24 2150.99 1780.15 1724.1 1502.75 1553.02 1467.62 1436.97 1428.36
threshold=-1.0000000180025095e-35 5988.0000000000009 0.00024252026196336376 6.0083720684051523 0.0036785398842766885 -1.0000000180025095e-35 260.00000000000006 3052.0000000000005 702.00000000000011 0.0040959687903523454 43294.000000000007 0.00036323687527328735 -1.0000000180025095e-35 -1.0000000180025095e-35 0.0025484933285042648 -11.458341121673582 1.0000000180025095e-35 1040.0000000000002 9.5000000000000018 3789392.0000000005 0.032462269067764289 1.0000000180025095e-35 -1.0000000180025095e-35 0.0034037708537653093 0.0021821899572387342 0.0012079261359758677 3.5000000000000004 1.0000000180025095e-35 700672.00000000012 -11.458341121673582
decision_type=2 2 2 2 2 2 2 2 2 2 2 2 2 2 2 2 2 2 2 2 2 2 2 2 2 2 2 2 2 2
left_child=3 2 8 15 5 10 11 14 12 24 20 17 -2 28 -5 -1 -15 -6 19 25 -4 -17 -18 -24 -10 -3 -27 -16 -7 -26
right_child=1 18 4 7 6 13 -8 -9 9 -11 -12 -13 -14 16 27 21 22 -19 -20 -21 -22 -23 23 -25 29 26 -28 -29 -30 -31
leaf_value=-0.44042916750906935 -0.45767994418859309 -0.57325656925972335 -0.4539122860667984 -0.54706265461342474 -0.44902612281193233 -0.48351787218639447 -0.58475489482486276 -0.58597776850909766 -0.50023167000191249 -0.45402741235851396 -0.55625736866029385 -0.46934496948344662 -0.5652373499798371 -0.52915780635133791 -0.55934472371366206 -0.44264199103145979 -0.49618583629919905 -0.53137458987560715 -0.57776575083815696 -0.57743544864957441 -0.52302605949583825 -0.58419823248016745 -0.44038878511967511 -0.4677274914014059 -0.43560659272450536 -0.53293603230449016 -0.47301229840594688 -0.44391351499452558 -0.55888819283850621 -0.55175662656303814
leaf_weight=352.734375 4096.640625 1377.421875 3578.90625 1121.953125 1064.53125 2027.8125 2273.203125 1804.921875 1976.953125 1502.578125 2616.5625 10913.671875 1193.90625 1018.359375 298.59375 273.984375 1999.6875 6184.921875 11324.765625 3573.515625 1721.25 40340.15625 52899.609375 6709.6875 269.296875 3484.21875 1567.734375 3539.53125 918.984375 15473.90625
leaf_count=1505 17479 5877 15270 4787 4542 8652 9699 7701 8435 6411 11164 46565 5094 4345 1274 1169 8532 26389 48319 15247 7344 172118 225705 28628 1149 14866 6689 15102 3921 66022
internal_value=-0.510826 -0.490289 -0.477305 -0.570959 -0.464788 -0.455024 -0.499897 -0.504019 -0.525269 -0.537191 -0.502765 -0.489276 -0.481952 -0.449261 -0.474194 -0.582014 -0.446543 -0.519282 -0.562395 -0.544994 -0.476357 -0.583243 -0.445177 -0.443466 -0.544243 -0.526962 -0.51434 -0.452894 -0.507023 -0.54977
internal_weight=187500 139768 118440 47731.9 93927.2 73490.9 20436.3 6765 24513.3 19222.7 7916.72 18163.1 5290.55 65574.1 4960.08 40966.9 62627.3 7249.45 21327.7 10002.9 5300.16 40614.1 61609 59609.3 17720.2 6429.38 5051.95 3838.12 2946.8 15743.2
internal_count=800000 596344 505346 203656 400756 313561 87195 28864 104590 82017 33778 77496 22573 279783 21163 174792 267210 30931 90998 42679 22614 173287 262865 254333 75606 27432 21555 16376 12573 67171
is_linear=0
shrinkage=1


Tree=1
num_leaves=31
num_cat=0
split_feature=637 2359 503 611 125 658 2377 2359 255 2364 616 533 497 589 784 390 665 598 679 2360 128 679 736 1597 567 617 626 25 493 206
split_gain=84542.2 47252.5 25272.6 13185 11310.8 8124.94 6728.96 6132.52 4394.49 4160.6 4097.93 2997.85 2815.39 2644.11 2588.21 2437.85 2174.36 2431.31 2145.89 2180.4 2014.38 1966.16 2150.19 1861.07 1715.58 1598.35 1586.33 1496.8 1421.74 1399.97
threshold=-1.0000000180025095e-35 5988.0000000000009 0.00024252026196336376 6.0024473667144784 0.0036785398842766885 -1.4999999999999998 260.00000000000006 3052.0000000000005 0.013670538552105429 443274.00000000006 4805232.0000000009 0.0077571319416165361 0.0025484933285042648 0.0019002609187737109 -11.458341121673582 0.0011129041668027642 -1.0000000180025095e-35 0.032462269067764289 9.5000000000000018 3789392.0000000005 1.0000000180025095e-35 42.500000000000007 3592.0000000000005 -1.0000000180025095e-35 0.0040166100952774295 16400.000000000004 1273530112.0000002 0.0034037708537653093 0.0004509680147748441 0.0011134506203234198
decision_type=2 2 2 2 2 2 2 2 2 2 2 2 2 2 2 2 2 2 2 2 2 2 2 2 2 2 2 2 2 2
left_child=3 2 8 14 5 -4 10 12 13 16 21 -10 -5 24 -1 -11 17 -7 19 29 -16 22 -6 -18 -2 -26 28 -25 -24 -3
right_child=1 18 4 7 6 9 -8 -9 11 15 -12 -13 -14 -15 20 -17 23 -19 -20 -21 -22 -23 26 27 25 -27 -28 -29 -30 -31
leaf_value=0.065804242724653045 0.054792650927533861 -0.058430147617502093 -0.04568859198491837 -0.034082118818647866 0.058769818885960827 0.052447360054540995 -0.071670271387482859 -0.072981717525608308 -0.042834550184990487 0.057014132419025622 -0.041721150989892625 0.0010821329482945809 0.054180314655955547 0.049277177710853798 0.063721955320771129 -0.030888651936264045 0.017199444621392352 -0.014904505783137543 -0.064763391180318416 -0.064437699943581714 -0.071249612219809036 -0.059391770923918896 -0.04113586200735634 0.064962543558964581 0.06543056434967949 -0.043468411648308891 0.036163121532488809 0.040199347233301638 0.018696311179126526 -0.0026983660848180573
leaf_weight=352.38332372903824 779.21653141081333 1459.6318272203207 2056.9869663268328 1174.2449903488159 5264.0039881318808 3786.6596161872149 2228.7362654954195 1825.5368087142706 11198.888435974717 1240.8248145878315 2320.3679985702038 5950.7441210448742 3918.5246974378824 3595.308483466506 278.38954675197601 2164.9405620396137 2392.6632732152939 2073.7183218300343 11125.199232876301 3510.868501573801 39415.964047923684 600.00677138566971 1602.5045692622662 53856.579590454698 389.40080724656582 2501.555338293314 5858.9845333993435 6882.0351692140102 2609.8639100790024 4941.9360836297274
leaf_count=1479 3325 6300 8836 5060 22263 15973 9699 7947 48146 5227 9925 25469 16498 15257 1169 9238 10176 8896 48319 15247 171503 2558 6863 226145 1643 10750 24862 29070 11025 21132
internal_value=-2.35691e-05 0.0194027 0.0315811 -0.058094 0.0432488 0.0523011 0.0103464 0.00564522 -0.0137889 0.0550853 0.0203593 -0.0275959 0.0338296 0.0188015 -0.0691054 0.00113703 0.0577484 0.0286146 -0.04969 -0.0327724 -0.070303 0.0293989 0.0328729 0.0604529 -0.0110525 -0.0288001 0.0193374 0.0621567 -0.00406555 -0.0154059
internal_weight=187357 140392 119354 46965 94938.9 74454.4 20484.5 6918.31 24415.1 72397.4 18255.7 17149.6 5092.77 7265.48 40046.7 3405.77 68991.7 5860.38 21037.6 9912.44 39694.4 15935.4 15335.4 63131.3 3670.17 2890.96 10071.4 60738.6 4212.37 6401.57
internal_count=800000 596344 505346 203656 400756 313561 87195 29505 104590 304725 77496 73615 21558 30975 174151 14465 290260 24869 90998 42679 172672 67571 65013 265391 15718 12393 42750 255215 17888 27432
is_linear=0
shrinkage=0.05


Tree=2
num_leaves=31
num_cat=0
split_feature=637 2360 501 1903 2364 611 1763 219 2360 527 2361 533 2360 692 554 512 496 589 784 640 55 626 128 135 683 546 1492 1546 375 685
split_gain=77313.2 23236.6 19750.7 16039.5 13431.5 12327.7 7527.47 6000.9 5545.21 4216.36 4064.61 3164.02 3129.43 3478.75 3034.26 2543.25 2431.94 2424.83 2389.06 2001.43 1892.84 1877.03 1861.44 1707.99 1675.16 1650.16 1523.54 1433.2 1416.82 1377.6
threshold=-1.0000000180025095e-35 4172.0000000000009 0.00026368988619651651 -1.4999999999999998 173306.00000000003 6.0024473667144784 1.0000000180025095e-35 0.0035761609906330709 1.0000000180025095e-35 9.7276279120706035e-05 14.000000000000002 0.0058713585603982219 4591872.0000000009 3.5000000000000004 0.0052989351097494372 18189.500000000004 0.00365713459905237 0.0036091231741011147 -11.458341121673582 1.0000000180025095e-35 0.00069289642851799737 1307428160.0000002 1.0000000180025095e-35 0.0017788098193705084 5.5000000000000009 0.0011940674739889803 -1.0000000180025095e-35 1.0000000180025095e-35 0.00021635677694575864 1169664.0000000002
decision_type=2 2 2 2 2 2 2 2 2 2 2 2 2 2 2 2 2 2 2 2 2 2 2 2 2 2 2 2 2 2
left_child=5 2 9 -3 7 18 28 14 16 20 12 -11 13 23 24 21 -7 -13 -1 -12 -2 -9 -20 -5 29 -15 -21 -8 -6 -4
right_child=1 3 4 10 6 8 27 15 -10 11 19 17 -14 25 -16 -17 -18 -19 22 26 -22 -23 -24 -25 -26 -27 -28 -29 -30 -31
leaf_value=0.06167060040550934 -0.0083150960328600802 0.063506761607736106 0.039785335858596185 -0.049182965347365305 0.023032091197376103 -0.031608943238602284 0.062676263792168119 0.0029615413370840931 -0.070008218615867313 -0.040814352046464164 0.06797567135990279 -0.027398601386380957 -0.059517137632229711 -0.05762347372136737 0.058719837191179437 -0.035967110723508958 0.050683836090553741 0.026843840018031681 0.059738714221258031 0.0056061346275433233 0.053402583026019884 0.046237920759480466 -0.069189093583612624 0.00016647202274289484 -0.057268600011343797 0.048592623654575236 -0.058492707146655637 -0.0042350628322520741 -0.06002492659184791 -0.027005057564463156
leaf_weight=357.07448436319828 2054.7168582379818 5116.3588698655367 6917.4511783868074 3157.2124293744564 571.06709359586239 1162.1910011321306 2430.6400114893913 4700.1358879506588 1804.1600023061037 10082.418257936835 344.47468733787537 3945.3481721282005 2892.3221126198769 409.24949152767658 54080.917729645967 1979.3546071648598 3946.0644480586052 4312.3921348303556 282.00568675994873 996.95553466677666 3142.112968608737 5366.2751519083977 38581.491099849343 3943.0344009548426 559.11200030148029 3433.7181783020496 13216.446584761143 1193.1297659724951 5089.4340938478708 869.02269078791142
leaf_count=1479 8826 21298 28898 13712 2424 5049 10129 19852 8024 43744 1443 16961 12675 1780 224955 8533 16432 18395 1169 4288 13242 22497 171503 16831 2394 14510 58012 5092 22205 3648
internal_value=-4.38862e-05 0.0183617 0.0297131 -0.0179838 0.0410852 -0.0562199 -0.0156232 0.0481549 0.0053469 -0.0107546 -0.032668 -0.0220196 -0.0132627 -0.00103751 0.0543895 0.015844 0.0319612 0.000928116 -0.0670707 -0.0511105 0.0290007 0.0260316 -0.0682536 -0.0217774 0.0263284 0.0372813 -0.0539967 0.0406456 -0.0516456 0.0323311
internal_weight=186936 140803 107294 33509.8 83756.5 46133 9284.27 74472.3 6912.42 23537 28393.4 18340.2 13835.5 10943.2 62426.5 12045.8 5108.26 8257.74 39220.6 14557.9 5196.83 10066.4 38863.5 7100.25 8345.59 3842.97 14213.4 3623.77 5660.5 7786.47
internal_count=800000 596344 451795 144549 350627 203656 39850 310777 29505 101168 123251 79100 59508 46833 259895 50882 21481 35356 174151 63743 22068 42349 172672 30543 34940 16290 62300 15221 24629 32546
is_linear=0
shrinkage=0.05


Tree=3
num_leaves=31
num_cat=0
split_feature=637 2359 496 611 125 658 2377 2359 2355 55 655 511 2364 497 784 381 374 2361 589 665 395 2352 554 128 681 21 389 492 144 1060
split_gain=70814.4 39264.6 20289.8 11547.9 9142.79 6449.47 5303.76 5131.74 4688.26 3798.12 3752.78 3520.93 2884.75 2260.33 2210.13 2047.43 2035.17 1931.02 1840.87 1837.57 1844.45 1780.34 2080.16 1723.89 1519.01 1495.95 1449.39 1416.2 1306.02 1298.53
threshold=-1.0000000180025095e-35 5988.0000000000009 0.00078477922943420719 6.0024473667144784 0.0036785398842766885 -1.4999999999999998 260.00000000000006 3052.0000000000005 702.00000000000011 0.0040959687903523454 -1.0000000180025095e-35 0.061733175069093711 443274.00000000006 0.0025484933285042648 -11.458341121673582 1.0000000180025095e-35 0.0012358796666376295 14.000000000000002 0.0022467643721029167 -1.0000000180025095e-35 0.00054935910156928014 7602.0000000000009 0.0064601211342960605 1.0000000180025095e-35 4.5000000000000009 0.003362771938554943 0.0078760823234915751 0.0013953082961961629 0.0041735270060598859 1.0000000180025095e-35
decision_type=2 2 2 2 2 2 2 2 2 2 2 2 2 2 2 2 2 2 2 2 2 2 2 2 2 2 2 2 2 2
left_child=3 2 8 14 5 -4 11 13 10 18 -2 15 19 -5 -1 -6 -14 -3 -10 20 -7 22 -20 -16 -13 -21 -19 -17 -27 -15
right_child=1 17 4 7 6 12 -8 -9 9 -11 -12 24 16 29 23 27 -18 26 21 25 -22 -23 -24 -25 -26 28 -28 -29 -30 -31
leaf_value=0.057958762259228441 0.049957096207281233 -0.027877589560792022 -0.042692685666755485 -0.031501518816305987 0.053646702265227109 0.041405707013431152 -0.067831607921995427 -0.06904880315779259 -0.046468682694297929 0.050953828292633688 -0.048270997752472115 -0.046413133841485966 0.045414190666561771 -0.050871607195905444 0.056153345754961836 -0.0084057841694607973 -0.034019807315970305 -0.06227234242261856 -0.031049827046968945 0.059149310391327162 -0.023040307859231484 -0.066799308708563723 0.015343098217540811 -0.067296332960724001 0.022564872513585035 0.048719514990364483 0.037011698750070723 0.031597391556682689 0.014410941893844127 0.056161618315799459
leaf_weight=360.84239485859871 4595.9377652555704 8224.2583996802568 1939.8875781297684 1153.3622718304396 5333.1374830454588 4401.2046202272177 2007.6160378158092 1744.5771052390337 7860.0322703719139 1658.4562482833862 1233.2648722976446 2606.2041444033384 1530.0216195136309 306.92304556071758 284.93121495842934 3848.1932208389044 1704.861196860671 11873.068070411682 4687.8757621645927 45418.895576521754 1484.776364132762 1436.0580024719238 4986.1220644116402 37705.545974805951 1150.4715613871813 14045.609288141131 379.33637474477291 5205.000236093998 3456.4652152955532 3692.7540104389191
leaf_count=1479 19236 36041 8499 5060 22198 18354 9085 7947 34358 6925 5391 11246 6364 1293 1169 16387 7405 53311 20322 186710 6275 6299 21460 171503 4884 57941 1646 21705 14302 15205
internal_value=-6.15254e-05 0.0173966 0.0282667 -0.0544885 0.03914 0.0472724 0.00928214 0.00507186 -0.0104187 -0.0216071 0.0291753 0.0178152 0.0496949 0.0301656 -0.0652007 0.0290708 0.00355056 -0.0466187 -0.0279508 0.0518644 0.0251488 -0.0148499 -0.00713822 -0.0663705 -0.0252888 0.0543635 -0.0591985 0.0145935 0.041944 0.0479482
internal_weight=186316 141067 120590 45248.9 94132.3 73981.7 20150.6 6897.62 26457.7 20628.5 5829.2 18143 72041.8 5153.04 38351.3 14386.3 3234.88 20476.7 18970.1 68807 5885.98 11110.1 9674 37990.5 3756.68 62921 12252.4 9053.19 17502.1 3999.68
internal_count=800000 596344 505346 203656 391355 305850 85505 29505 113991 89364 24627 76420 297351 21558 174151 60290 13769 90998 82439 283582 24629 48081 41782 172672 16130 258953 54957 38092 72243 16498
is_linear=0
shrinkage=0.05


Tree=4
num_leaves=31
num_cat=0
split_feature=637 2359 503 611 2141 123 2359 527 658 1597 836 533 115 589 784 442 2361 692 386 509 128 2375 1315 1526 2092 2360 805 389 810 512
split_gain=64961.2 35591.3 18237.3 10831.4 8227.22 7621.32 4704.98 3912.67 3612.26 3732.48 3013.59 2469.53 2398.21 2254.12 2048.67 2039.4 1833.38 1722.21 1705.33 2233.73 1599.67 1584.61 1532.78 1669.3 1513.71 1430.09 1351.71 1346.68 1207.25 1561.84
threshold=-1.0000000180025095e-35 5988.0000000000009 0.00021855105296708646 6.0024473667144784 -1.0000000180025095e-35 0.0035995171638205652 3052.0000000000005 9.7276279120706035e-05 -1.4999999999999998 -1.0000000180025095e-35 842.00000000000011 0.00579386716708541 0.0034853317774832253 0.0035193805815652017 -11.458341121673582 0.00122756784548983 14.000000000000002 3.5000000000000004 0.0014910004683770242 0.061449987813830383 1.0000000180025095e-35 246.00000000000003 -1.0000000180025095e-35 -1.0000000180025095e-35 -1.0000000180025095e-35 3347200.0000000005 -1.0000000180025095e-35 0.0078760823234915751 -56911.999999999993 6125.5000000000009
decision_type=2 2 2 2 2 2 2 2 2 2 2 2 2 2 2 2 2 2 2 2 2 2 2 2 2 2 2 2 2 2
left_child=3 2 7 14 24 8 15 21 -6 -10 -7 -9 -12 -13 -1 -5 17 -3 19 -14 -16 -2 -11 -24 -4 -19 -25 -18 29 -22
right_child=1 16 4 6 5 10 -8 11 9 22 12 13 18 -15 20 -17 27 25 -20 -21 28 -23 23 26 -26 -27 -28 -29 -30 -31
leaf_value=0.054600420386937111 0.038419948232551682 -0.04225220817811616 -0.070469039414682633 0.045364831155503112 -0.033144392159743283 0.058925388714545869 -0.067310256409789965 -0.03978556206023362 -0.0035658207264333513 -0.0043746549575596101 0.05539230175363527 -0.030701995609236529 0.013160152717047988 0.021296586848576562 0.052902811452098214 -0.030086097782421512 -0.060470441317878376 0.033491178501466656 -0.049142227742020358 -0.041202109045709617 0.090243912527647241 -0.03231744868402199 0.0036772506996058415 -0.056852847574801135 0.016068412510196355 -0.04595800202969115 0.051972091530796294 0.034805797080184157 -0.06676770689646605 -0.065652087754023897
leaf_weight=363.80399318039417 4327.0494214892387 5595.6725868433714 2058.6457654237747 4018.2164213061333 1436.9114182889462 2475.9074093997478 1701.2560072392225 10183.486311867833 3499.6955801099539 1306.5029924511909 1668.756348952651 3929.6873930245638 7797.3152851164341 4437.8594809025526 287.25298476219177 1152.4619140326977 11621.922425031662 1715.073457211256 2132.4044431447983 2494.0346974730492 283.00904539227486 969.00288920104504 1871.7843470424414 286.52000218629837 669.72192317247391 845.6889360845089 69448.277426615357 383.10768850147724 36143.623741030693 371.62370479106903
leaf_count=1479 18173 24879 9503 16574 6352 10189 7947 45118 14695 5463 6852 17157 32823 18824 1169 4984 53311 7339 9233 10889 1319 4198 7751 1209 2810 3823 284107 1646 168452 1732
internal_value=-7.74398e-05 0.0165036 0.0267524 -0.0528849 0.0363701 0.0388436 0.00481679 -0.0124277 0.045397 0.046874 0.00805106 -0.023249 -0.00088703 -0.00312373 -0.0634731 0.028548 -0.0450019 -0.0267097 -0.00844646 -1.41507e-05 -0.0646314 0.0254773 0.049295 0.0502742 -0.049227 0.00725317 0.051525 -0.05743 -0.0655489 0.00174445
internal_weight=185476 141155 120994 44321.2 97146.5 94418.1 6871.93 23847.1 77849.7 76412.8 16568.4 18551 14092.5 8367.55 37449.3 5170.68 20161.5 8156.43 12423.8 10291.3 37085.5 5296.05 72913.1 71606.6 2728.37 2560.76 69734.8 12005 36798.3 654.633
internal_count=800000 596344 505346 203656 401876 389563 29505 103470 319577 313225 69986 81099 59797 35981 174151 21558 90998 36041 52945 43712 172672 22371 298530 293067 12313 11162 285316 54957 171503 3051
is_linear=0
shrinkage=0.05


Tree=5
num_leaves=31
num_cat=0
split_feature=637 511 613 611 40 2364 2355 2360 2360 488 1998 55 655 658 930 21 2360 784 497 1246 2360 32 691 376 6 554 27 2363 55 692
split_gain=59664.1 17446.9 15539 10182.9 9807.69 10644.2 5828.88 4326.63 4268.09 4196.84 3933.44 3796.11 3558.63 3256.63 2570.63 2234.97 2168.36 1902.51 1893.71 1724.92 1698.54 1677.02 1636.14 1370.23 1368.4 1367.17 1351.72 1304.76 1281.36 1249.86
threshold=-1.0000000180025095e-35 0.00060248968657106172 1.0000000180025095e-35 6.0024473667144784 0.0013951002038083973 8200.0000000000018 702.00000000000011 177920.00000000003 1.0000000180025095e-35 0.0014021397219039502 1.0000000180025095e-35 0.0040959687903523454 -1.0000000180025095e-35 -1.4999999999999998 1.0000000180025095e-35 0.0034028770169243221 8884.0000000000018 -11.458341121673582 0.0025484933285042648 -1.0000000180025095e-35 3518976.0000000005 0.0021821899572387342 1.5000000000000002 0.023569103330373768 0.0038684573955833916 0.0050528508145362147 0.0038099124794825916 1.0000000180025095e-35 0.00074903335189446818 1.0000000180025095e-35
decision_type=2 2 2 2 2 2 2 2 2 2 2 2 2 2 2 2 2 2 2 2 2 2 2 2 2 2 2 2 2 2
left_child=3 6 7 17 -4 9 12 13 18 26 20 16 27 -3 24 29 21 -1 -5 -17 -11 -8 28 -19 -7 -24 -6 -2 -23 -15
right_child=1 2 4 8 5 14 11 -9 -10 10 -12 -13 -14 15 -16 19 -18 23 -20 -21 -22 22 25 -25 -26 -27 -28 -29 -30 -31
leaf_value=0.051541618906935996 0.055364059031366243 -0.031995385799477291 0.051850950782142885 -0.02994016916834526 0.00032062310125326686 -0.027905311940655639 0.018877800912532255 -0.037696436584277043 -0.064787001149477774 0.033887602895177366 -0.066444625750715899 0.04340731768228371 -0.044950596186995873 0.02020536725256962 0.044349622371595877 -0.018128329663888883 -0.058117440337104545 -0.063939905083152254 0.043112261087118076 0.03665925121498164 -0.045229880914805343 -0.052979333482214654 -0.041563558941854949 0.040097885655380715 -0.062479241790847233 0.031692596336152755 -0.042274253924094791 -0.023299397623933221 -0.02180851105472903 0.055492970439774886
leaf_weight=366.06257526576519 4389.9385840147734 1377.3035483509302 8629.3641519844532 1137.224125161767 3919.2064554840326 4571.1083853542805 2058.2989401072264 1665.6315972059965 1675.1003630906343 16279.990156680346 1112.7741432934999 1777.8648632913828 1374.2192195206881 2701.5488387644291 775.05529542267323 1553.8737238496542 6083.0997417122126 35837.20828063786 4033.7840583622456 19040.312857449055 707.87453691661358 6195.3156585544348 985.75769630074501 319.30351553857327 7653.9892761558294 1799.6904553622007 3549.3759081959724 599.07307766377926 7047.426241517067 35265.637077704072
leaf_count=1479 18116 6124 35225 5047 16692 20249 8823 7363 8024 67255 5122 7376 6118 11232 3319 6544 27957 171344 16434 78304 3160 27629 4359 1328 35232 7765 15834 2538 30959 143049
internal_value=-9.17358e-05 0.0156718 0.0252525 -0.0513833 0.00366503 -0.0071159 -0.0165903 0.0417919 0.00457663 0.0116133 0.0246254 -0.027107 0.026294 0.0440008 -0.0439533 0.0457881 -0.0322939 -0.0618729 0.0270463 0.0325254 0.0305908 -0.0236086 -0.0290646 -0.0630211 -0.0495516 0.00576757 -0.0199222 0.0459183 -0.0363911 0.0529821
internal_weight=184482 141114 108803 43368.7 47198.7 38569.4 32310.7 61604.3 6846.11 25569.2 18100.6 25947.5 6363.23 59938.7 13000.2 58561.4 24169.6 36522.6 5171.01 20594.2 16987.9 18086.5 16028.2 36156.5 12225.1 2785.45 7468.58 4989.01 13242.7 37967.2
internal_count=800000 596344 454704 203656 202088 166863 141640 252616 29505 108063 75537 114868 26772 245253 58800 239129 107492 174151 21481 84848 70415 79535 70712 172672 55481 12124 32526 20654 58588 154281
is_linear=0
shrinkage=0.05


Tree=6
num_leaves=31
num_cat=0
split_feature=637 2359 503 611 2141 123 2359 255 1597 658 50 533 95 497 679 126 784 373 512 2354 626 1060 128 53 2092 862 2360 1431 626 1941
split_gain=54855.4 29917.8 14831.7 9593.26 6789.71 6281.7 4223.94 3353.52 3013.63 3058.39 2398.17 2198.38 1887.6 1853.49 1763.34 1756.86 1716.49 1613.45 1875.41 1414.7 2149.32 1419.35 1412.26 1386.55 1365.24 1358.14 1334.53 1224.53 1220.05 1199.83
threshold=-1.0000000180025095e-35 5988.0000000000009 0.00021855105296708646 5.9876797199249276 -1.0000000180025095e-35 0.0035995171638205652 3052.0000000000005 0.013670538552105429 -1.0000000180025095e-35 -1.4999999999999998 0.0039235069416463384 0.0077571319416165361 0.003529532928951085 0.0025484933285042648 9.5000000000000018 0.0012079261359758677 -11.458341121673582 0.00074811620288528513 21624.500000000004 907406.00000000012 1307428160.0000002 1.0000000180025095e-35 1.0000000180025095e-35 0.0011071854969486596 -1.0000000180025095e-35 -1.0000000180025095e-35 4082432.0000000005 -1.0000000180025095e-35 1307428160.0000002 1.0000000180025095e-35
decision_type=2 2 2 2 2 2 2 2 2 2 2 2 2 2 2 2 2 2 2 2 2 2 2 2 2 2 2 2 2 2
left_child=3 2 7 16 24 8 13 12 -6 -10 17 -9 23 -5 15 -3 -1 18 28 25 -21 -22 -18 -2 -4 -11 -17 -27 -7 -24
right_child=1 14 4 6 5 10 -8 11 9 19 -12 -13 -14 -15 -16 26 22 -19 -20 20 21 -23 29 -25 -26 27 -28 -29 -30 -31
leaf_value=0.049624550957517152 -0.0012185405784161567 -0.062029271152680712 -0.067611992363613774 -0.028583609394286252 -0.0042689372664458753 -0.0074524565990199123 -0.064569008616915904 -0.037516551991332511 -0.031029906046468082 -0.077461175599804089 0.040820186877143366 0.00078149563953702609 -0.033058616611337695 0.041033427236686466 -0.05693465416279473 -0.0003402194365213069 0.048128495966877072 -0.047117802034915654 -0.040189930250901368 -0.02303438935702775 -0.026742363611749462 0.042651156328410482 -0.066014456888662129 0.049392838093994279 0.015029058502270555 0.017055768470282531 -0.050217676032227959 0.049442032974386686 0.030083904127156974 -0.036670751268185427
leaf_weight=349.31146077811718 2193.030898436904 2585.1252929568291 1958.8205138742924 1244.0961825102568 3539.6430819183588 3864.8483610451221 1747.5089937150478 10577.054080143571 1371.7961052656174 217.08547154068947 3973.3992940634489 5802.7401887029409 1496.2356398701668 4129.9807079136372 10142.968849748373 5023.2347523272038 289.92658123373985 1831.2079391926527 1989.3917873352766 1723.9736397862434 798.7083838135004 9517.7650594264269 30703.482753753662 3533.9178194850683 670.93154157698154 3072.3555515259504 1829.5442409366369 58354.10062906146 4921.299164712429 3929.4571209549904
leaf_count=1405 9463 12191 9503 5623 14853 16279 8611 47672 6194 926 16364 24947 6657 16776 48319 21902 1169 8049 8850 7045 3319 38620 150834 14731 2810 12615 8586 236005 20444 19238
internal_value=-0.000104265 0.0148911 0.024141 -0.0499746 0.032726 0.0349158 0.00295883 -0.0114335 0.0408157 0.0429419 0.00694856 -0.023949 0.0169474 0.0249171 -0.042461 -0.0269062 -0.060662 -0.00372711 0.00364676 0.0443191 0.0286429 0.0372787 -0.0617652 0.0300121 -0.0465277 0.047381 -0.0136564 0.0478222 0.0135724 -0.0626851
internal_weight=183383 140989 121408 42393.8 97805.3 95175.6 7121.59 23603 78595.4 75055.8 16580.1 16379.8 7223.18 5374.08 19580.9 9437.9 35272.2 12606.7 10775.5 73684 12040.4 10316.5 34922.9 5726.95 2629.75 61643.5 6852.78 61426.5 8786.15 34632.9
internal_count=800000 596344 505346 203656 401876 389563 31010 103470 319577 304724 69986 72619 30851 22399 90998 42679 172646 53622 45573 298530 48984 41939 171241 24194 12313 249546 30488 248620 36723 170072
is_linear=0
shrinkage=0.05


Tree=7
num_leaves=31
num_cat=0
split_feature=637 2359 496 572 125 1060 658 2141 2355 2359 55 655 223 2364 679 589 2360 2352 554 784 374 497 32 381 682 862 567 620 798 620
split_gain=50491.9 27200.5 13354.4 9080.06 6061.24 4658.95 4329.37 3816.83 3556.06 3220.97 2865.12 2832.94 2598.76 2096.41 1679.38 1667.07 1661.53 1613.1 1829.38 1609.5 1569.13 1454.93 1403.79 1348.08 1300.62 1222.59 1205.61 1136.4 1100.7 1090.87
threshold=-1.0000000180025095e-35 5988.0000000000009 0.00083287106826901447 0.0033703995868563656 0.0036614700220525269 1.0000000180025095e-35 -1.4999999999999998 -1.0000000180025095e-35 702.00000000000011 3300.0000000000005 0.0040959687903523454 -1.0000000180025095e-35 0.0038764872588217263 443274.00000000006 9.5000000000000018 0.0021995342103764419 3789392.0000000005 7602.0000000000009 0.0064601211342960605 -11.458341121673582 0.0013203413691371681 0.00234435813035816 0.0072067808359861383 1.0000000180025095e-35 1.0000000180025095e-35 -1.0000000180025095e-35 0.0040166100952774295 76.500000000000014 -38726.999999999993 16.500000000000004
decision_type=2 2 2 2 2 2 2 2 2 2 2 2 2 2 2 2 2 2 2 2 2 2 2 2 2 2 2 2 2 2
left_child=3 2 8 19 6 -5 -4 -6 11 21 15 28 23 22 16 26 -3 18 -17 -1 -15 29 25 -9 -14 -8 -10 -20 -2 -7
right_child=1 14 4 5 7 9 13 12 10 -11 -12 -13 24 20 -16 17 -18 -19 27 -21 -22 -23 -24 -25 -26 -27 -28 -29 -30 -31
leaf_value=0.047926255489657107 -0.071619418356692041 -0.010808924703202563 -0.037631503473564663 -0.060363710608075494 -0.06193836321842934 0.058801562490396524 -0.07405541324443396 0.044903761890526334 0.0080359795641797901 -0.060685040911563397 0.043528103491330794 -0.043508811399086827 -0.029754547377473507 0.03627940476413212 -0.055401093847006255 -0.027454505073630116 -0.055424620707412608 -0.062284388249952798 0.038699169403734107 -0.062347652611993688 -0.03362956664838599 0.049314151257910263 0.024057473376163221 0.012986059723009175 0.044922344566248953 0.045200344643399934 -0.050392390379624424 -0.0086768497817802537 0.047928920035257332 -0.035667432153738673
leaf_weight=334.3679376989603 201.10795436799526 6190.2397987544537 1834.6485309302807 2689.6966364085674 1801.9727050662041 428.42537413537502 215.68533982336521 5255.155976369977 1021.6553291231394 1089.7643048614264 1700.0159820318222 1189.3167570978403 3883.9764952510595 1574.579602882266 9908.5391454994678 4633.8791208267212 3147.9433829039335 1392.8267644196749 2642.323264464736 31829.684583678842 1637.2856970578432 3964.2106263190508 9463.880945533514 8929.452455624938 686.05631563067436 59976.45272782445 6499.2825132459402 2429.6833149641752 4519.218082472682 1065.7801283895969
leaf_count=1343 864 27432 8405 13260 8979 1853 938 21405 4532 5504 6960 5424 16893 6414 48319 20653 15247 6459 11253 160309 7192 16217 38439 37165 2838 241695 29603 10711 18524 5170
internal_value=-0.000115421 0.0141633 0.0229125 -0.0486524 0.0316112 -0.00496027 0.0382274 0.00756821 -0.0086793 0.017797 -0.0186078 0.0254588 0.0142465 0.0401374 -0.041063 -0.024281 -0.0258491 -0.0119652 -0.00474425 -0.0612013 0.000642493 0.0334658 0.0419585 0.024811 -0.018544 0.044773 -0.0424554 0.0160043 0.0428356 -0.00858085
internal_weight=182137 140735 121488 41401.9 95259.1 9237.88 74702.5 20556.6 26229.3 6548.18 20319.7 5909.64 18754.6 72867.9 19246.7 18619.7 9338.18 11098.7 9705.89 32164.1 3211.87 5458.42 69656 14184.6 4570.03 60192.1 7520.94 5072.01 4720.33 1494.21
internal_count=800000 596344 505346 203656 390363 42004 303083 87280 114983 28744 90171 24812 78301 294678 90998 83211 42679 49076 42617 161652 13606 23240 281072 58570 19731 242633 34135 21964 19388 7023
is_linear=0
shrinkage=0.05


Tree=8
num_leaves=31
num_cat=0
split_feature=2359 503 2380 655 2355 1411 2364 736 660 632 219 57 930 620 2149 1559 825 2188 2352 736 12 554 679 126 2354 567 477 589 2354 683
split_gain=38178.1 40969.1 8941.53 6652.58 6714.29 6175.63 5359.69 3873.67 3437.54 3293.45 3077.04 2412.49 2316.11 1980.78 1937.48 1920.89 1732.42 1717.43 1680.07 1648.79 1635.11 1534.92 1505.42 1678.1 1408.93 1389.27 1373.58 1369.4 1135.58 1106.89
threshold=5988.0000000000009 0.00021855105296708646 6192.0000000000009 -1.0000000180025095e-35 770.00000000000011 1.0000000180025095e-35 10530.000000000002 4630.0000000000009 1.0000000180025095e-35 1.0000000180025095e-35 0.00353119510691613 0.0048900377005338677 1.0000000180025095e-35 19.500000000000004 -1.0000000180025095e-35 -1.0000000180025095e-35 -26013.999999999996 -1.0000000180025095e-35 4138.0000000000009 1540.0000000000002 0.0066476424690335998 0.0063617234118282804 9.5000000000000018 0.0012710978626273575 10418.000000000002 0.0058391236234456309 0.00014419337821891534 0.0021995342103764419 2590600.0000000005 5.5000000000000009
decision_type=2 2 2 2 2 2 2 2 2 2 2 2 2 2 2 2 2 2 2 2 2 2 2 2 2 2 2 2 2 2
left_child=1 3 5 4 17 9 15 16 11 -3 20 18 22 -14 -9 24 -7 -1 21 -12 29 25 23 -2 -4 -6 -21 -23 -22 -11
right_child=12 2 6 -5 8 7 -8 14 -10 10 19 -13 13 -15 -16 -17 -18 -19 -20 26 28 27 -24 -25 -26 -27 -28 -29 -30 -31
leaf_value=-0.060241130661595033 -0.063101473256618898 -0.037630471228118682 -0.085567478475549907 -0.062445135254312271 0.0017881973601829846 0.050120505002184595 -0.051646419114055112 -0.057231142539508451 -0.064819280929299769 0.045551344597917993 0.048496067119680714 0.038944161749500272 -0.040567468835179352 0.047278968407638948 -0.0048622748044846965 -0.062171505526612492 -0.034049867001771157 0.036762315324856971 -0.060269667155436468 -0.021567224466382109 0.024329884613499095 -0.037106444439096074 -0.06304829125709506 -0.022601390691908432 0.037554319067251228 -0.046208941331639726 0.01859000329450847 0.016272561449572742 -0.055011072306988318 0.0028933095571673948
leaf_weight=497.80321238934994 4354.7174611240625 1468.2860781103373 245.64979784190655 12307.063585639 2073.4322516322136 3926.3164071142673 5414.2276708334684 2444.2431251555681 5618.6653470695019 61390.2917984128 2803.6194656789303 1582.6185824871063 1619.5779829621315 1062.7772574275732 6366.4356359541416 631.60528275370598 724.06360219419003 5472.1895888000727 2893.8461189717054 3238.6198728680611 6285.8239943236113 1686.0123126506805 18211.840853363276 6197.939083352685 4294.4908940941095 5524.8870789110661 6217.6298714727163 4181.1520269811153 485.84277273714542 1559.3232026100159
leaf_count=2552 21869 6747 1006 62321 9288 15904 25506 12028 29017 247596 11366 6614 7623 4697 26828 3176 3111 23250 14153 13881 26051 7839 93111 28845 17611 25567 25555 18235 2053 6600
internal_value=-0.000125797 0.0104183 0.0267566 -0.0315607 -0.0186894 0.0315226 -0.0168748 9.60181e-05 -0.0306907 0.036592 0.0379213 -0.020003 -0.0501974 -0.00576179 -0.0193904 0.0195271 0.0370152 0.0286738 -0.0257056 0.0148209 0.0419833 -0.0182775 -0.0543412 -0.0393144 0.0308927 -0.0331115 0.00483677 0.000933352 0.0186375 0.0444947
internal_weight=180781 149334 107496 41837.7 29530.6 96910.5 10586 13461.1 23560.6 83449.4 81981.2 17941.9 31446.9 2682.36 8810.68 5171.75 4650.38 5969.99 16359.3 12259.9 69721.3 13465.5 28764.5 10552.7 4540.14 7598.32 9456.25 5867.16 6771.67 62949.6
internal_count=800000 643855 445019 198836 136515 397720 47299 57871 110713 339849 333102 81696 156145 12320 38856 21793 19015 25802 75082 50802 282300 60929 143825 50714 18617 34855 39436 26074 28104 254196
is_linear=0
shrinkage=0.05


Tree=9
num_leaves=31
num_cat=0
split_feature=637 2359 502 572 2141 658 1060 1597 578 2355 2359 95 1793 557 256 691 1451 784 736 36 333 497 626 685 2377 692 468 762 532 55
split_gain=43299.4 22556.6 10548.8 8186.49 5200.92 4603.03 4068.9 3700.92 2906.95 2905.56 2757.14 2743.43 2492.35 2234.08 1903.02 1690.79 1543.47 1430.09 1403.17 1371.13 1233.3 1176.19 1108.5 2136.86 1354.25 1244.97 1101.78 1085.38 1073.63 1062.71
threshold=-1.0000000180025095e-35 5228.0000000000009 0.00024708801356609916 0.0033703995868563656 -1.0000000180025095e-35 -1.4999999999999998 1.0000000180025095e-35 -1.0000000180025095e-35 0.016165190376341346 702.00000000000011 3300.0000000000005 0.0037979675689712171 1.0000000180025095e-35 0.0052084377966821202 0.44033451378345495 1.5000000000000002 1.0000000180025095e-35 -11.458341121673582 1040.0000000000002 0.0039529381319880494 1.0000000180025095e-35 0.00234435813035816 1504126016.0000002 661760.00000000012 643.50000000000011 1.0000000180025095e-35 0.042332775890827186 -6.6045103073120108 0.038994496688246734 0.00081381225027143966
decision_type=2 2 2 2 2 2 2 2 2 2 2 2 2 2 2 2 2 2 2 2 2 2 2 2 2 2 2 2 2 2
left_child=3 2 8 17 20 -6 -5 -7 9 26 21 22 15 29 -10 28 -17 -1 -13 -20 -4 -8 23 25 -25 -9 -2 -27 -3 -11
right_child=1 12 4 6 5 7 10 11 14 13 -12 18 -14 -15 -16 16 -18 -19 19 -21 -22 -23 -24 24 -26 27 -28 -29 -30 -31
leaf_value=0.043915604699099803 0.043880868125555132 -0.049941989347149947 0.040247280807975204 -0.057977766904080956 -0.0372048594776817 -0.013248300060771288 -0.0076540972484054866 -0.02226296886195267 -0.047013729523825362 -0.035714666932698105 -0.0583872217284295 0.045802654084477354 0.013289551004528159 0.043687710758220782 0.054322360019913279 -0.040709417072289894 0.015594846068516053 -0.059924164474138064 -0.0096425416425227201 0.024502793159020458 -0.05820355937929899 0.044670350374007982 0.045489177775123721 -0.022745571986393685 0.046423521556433707 -0.070264330640972289 -0.05820897041396024 0.039235456230051563 0.050098929660915753 -0.0042705577523337729
leaf_weight=335.26345270872116 4031.9481306821108 14351.634605914354 375.93533574044704 2563.8988365530968 2420.3162152171135 4184.647491440177 1469.3321411460638 866.10829159617424 5558.6064973920584 4960.8399338573217 1035.7032497823238 3001.3624454587698 2518.1492683291435 1655.3333954364061 505.41699704527855 2574.7955230176449 2308.4647141098976 30105.503057390451 5856.0161765515804 5904.451629191637 2067.8306384980679 3991.8501030057669 34045.997678413987 2587.3860256671906 974.04646146297455 227.894809871912 282.82086706161499 32469.330364212394 273.29413744807243 5862.4717545956373
leaf_count=1343 16540 70754 1561 13260 11255 17606 7023 3602 25752 23139 5504 12087 11200 6921 2136 12253 10287 160309 24947 24129 10608 16217 136888 10657 3934 995 1258 130511 1211 26113
internal_value=-0.000135908 0.0129196 0.0216008 -0.0463621 0.0289395 0.0308409 -0.00464088 0.0326684 -0.00889451 0.00182033 0.0164077 0.0349044 -0.033524 -0.0104092 -0.0385677 -0.0395668 -0.0140927 -0.0587805 0.015288 0.00750044 -0.0430584 0.0305924 0.0389731 0.0329974 -0.00382793 0.036905 0.0371892 0.0384723 -0.0480725 -0.0186829
internal_weight=179367 139865 117839 39501.6 94981.3 92537.6 9060.78 90117.2 22857.4 16793.4 6496.89 85932.6 22026.3 12478.6 6064.02 19508.2 4883.26 30440.8 14761.8 11760.5 2443.77 5461.18 71170.8 37124.8 3561.43 33563.3 4314.77 32697.2 14624.9 10823.3
internal_count=800000 596344 490639 203656 388780 376611 42004 365356 101859 73971 28744 347750 105705 56173 27888 94505 22540 161652 61163 49076 12169 23240 286587 149699 14591 135108 17798 131506 71965 49252
is_linear=0
shrinkage=0.05


Tree=10
num_leaves=31
num_cat=0
split_feature=637 2359 502 611 2141 658 1597 2359 578 2355 123 1793 558 256 1451 2359 691 1811 129 736 442 2092 139 1315 1526 509 386 2352 691 1235
split_gain=39945.2 20499.2 9506.79 7714.34 4716.4 4158.2 3331.94 3150.24 2670.44 2617.57 2536.18 2307.93 2022.22 1740.22 1642.81 2426.98 1595.48 1421.41 1419.52 1339.48 1336.54 1174.66 1161.44 1125.83 1046.76 1045.53 1176.98 1028.23 1130.52 997.596
threshold=-1.0000000180025095e-35 5228.0000000000009 0.00024708801356609916 5.9876797199249276 -1.0000000180025095e-35 -1.4999999999999998 -1.0000000180025095e-35 3052.0000000000005 0.016165190376341346 702.00000000000011 0.0034754348453134303 1.0000000180025095e-35 0.0059992584865540275 0.44033451378345495 1.0000000180025095e-35 3300.0000000000005 1.5000000000000002 -1.0000000180025095e-35 0.0039319482166320094 1040.0000000000002 0.00122756784548983 -1.0000000180025095e-35 0.021510731428861622 -1.0000000180025095e-35 -1.0000000180025095e-35 0.061449987813830383 0.0033970064250752334 20488.000000000004 1.5000000000000002 1.0000000180025095e-35
decision_type=2 2 2 2 2 2 2 2 2 2 2 2 2 2 2 2 2 2 2 2 2 2 2 2 2 2 2 2 2 2
left_child=3 2 8 14 21 -6 -7 20 9 -2 23 16 27 -10 -1 22 -3 -18 19 -12 -5 -4 -16 -8 -25 26 -21 28 -11 -13
right_child=1 11 4 7 5 6 10 -9 13 12 18 29 -14 -15 15 -17 17 -19 -20 25 -22 -23 -24 24 -26 -27 -28 -29 -30 -31
leaf_value=-0.061577479664720138 0.035208357243278379 -0.046651218173636932 -0.063269314451749922 0.034292812165036872 -0.035852976378257524 -0.012620690076575354 -0.0095123943970318193 -0.059829703778905868 -0.045463858331780821 -0.020328013090425603 0.044547073964771373 0.0290206936784164 0.039032927316013315 0.051013849841897212 0.032591659659121072 -0.062207817473191165 0.015503182791815666 -0.038743135903533066 0.040272778350312795 0.013024402423873847 -0.025814704297783042 0.01543708110518871 -0.028591695280247287 -0.0011730985093281912 0.039086708975169235 -0.037519820153648076 -0.045518205887845865 -0.060783080264535008 0.026318053151287407 -0.047474927357342572
leaf_weight=24937.242189452052 4328.8144152760506 14325.164349228144 1740.2152761220932 4153.7386915534735 2386.8622997105122 4173.4007509201765 1263.6081277281046 1561.0716256797314 5463.1481022536755 7802.7968331724405 1936.5373684614897 1983.4554820507765 1801.7434177696705 511.13111141324043 1381.3057417720556 3512.5692147314548 2260.1652652919292 2593.023632094264 4200.2746349126101 7412.7469970434904 1189.7342775017023 651.54883779585361 1769.0546604245901 1654.4142128825188 66945.145512059331 1630.084789827466 971.01432843506336 1253.5740201324224 1558.3598791360855 542.85827977955341
leaf_count=137306 17798 71965 9438 16953 11255 17606 5214 8611 25752 35698 7791 8579 7540 2136 6690 19275 10030 12510 17077 30598 5446 2731 9375 6736 268714 7350 4270 6077 6858 2621
internal_value=-0.000143723 0.0123089 0.0205434 -0.0452233 0.0274943 0.0292854 0.0310093 0.0026551 -0.0085108 0.00172821 0.0331263 -0.0323396 -0.00994414 -0.0372097 -0.0556846 -0.0336294 -0.0382571 -0.0134802 0.0152694 0.00648133 0.0209098 -0.0418286 -0.00176527 0.0372543 0.0381158 -0.000880053 0.00624395 -0.0182575 -0.0125628 0.0125832
